{"learner":{"attributes":{"scikit_learn":"{\"_estimator_type\": \"classifier\"}"},"feature_names":["previous_gpa","failed_subject_count","attendance_rate","previous_failed_flag","previous_passed_flag","academic_challenge_score","external_factor_score","attendance_risk_index","prior_failure_pressure","midterm_vs_history_gap","midterm_component_balance","midterm_component_range","challenge_attendance_interaction","support_need_intensity"],"feature_types":["float","int","float","float","float","int","int","float","float","float","float","float","float","int"],"gradient_booster":{"model":{"cats":{"enc":[],"feature_segments":[],"sorted_idx":[]},"gbtree_model_param":{"num_parallel_tree":"1","num_trees":"900"},"iteration_indptr":[0,3,6,9,12,15,18,21,24,27,30,33,36,39,42,45,48,51,54,57,60,63,66,69,72,75,78,81,84,87,90,93,96,99,102,105,108,111,114,117,120,123,126,129,132,135,138,141,144,147,150,153,156,159,162,165,168,171,174,177,180,183,186,189,192,195,198,201,204,207,210,213,216,219,222,225,228,231,234,237,240,243,246,249,252,255,258,261,264,267,270,273,276,279,282,285,288,291,294,297,300,303,306,309,312,315,318,321,324,327,330,333,336,339,342,345,348,351,354,357,360,363,366,369,372,375,378,381,384,387,390,393,396,399,402,405,408,411,414,417,420,423,426,429,432,435,438,441,444,447,450,453,456,459,462,465,468,471,474,477,480,483,486,489,492,495,498,501,504,507,510,513,516,519,522,525,528,531,534,537,540,543,546,549,552,555,558,561,564,567,570,573,576,579,582,585,588,591,594,597,600,603,606,609,612,615,618,621,624,627,630,633,636,639,642,645,648,651,654,657,660,663,666,669,672,675,678,681,684,687,690,693,696,699,702,705,708,711,714,717,720,723,726,729,732,735,738,741,744,747,750,753,756,759,762,765,768,771,774,777,780,783,786,789,792,795,798,801,804,807,810,813,816,819,822,825,828,831,834,837,840,843,846,849,852,855,858,861,864,867,870,873,876,879,882,885,888,891,894,897,900],"tree_info":[0,1,2,0,1,2,0,1,2,0,1,2,0,1,2,0,1,2,0,1,2,0,1,2,0,1,2,0,1,2,0,1,2,0,1,2,0,1,2,0,1,2,0,1,2,0,1,2,0,1,2,0,1,2,0,1,2,0,1,2,0,1,2,0,1,2,0,1,2,0,1,2,0,1,2,0,1,2,0,1,2,0,1,2,0,1,2,0,1,2,0,1,2,0,1,2,0,1,2,0,1,2,0,1,2,0,1,2,0,1,2,0,1,2,0,1,2,0,1,2,0,1,2,0,1,2,0,1,2,0,1,2,0,1,2,0,1,2,0,1,2,0,1,2,0,1,2,0,1,2,0,1,2,0,1,2,0,1,2,0,1,2,0,1,2,0,1,2,0,1,2,0,1,2,0,1,2,0,1,2,0,1,2,0,1,2,0,1,2,0,1,2,0,1,2,0,1,2,0,1,2,0,1,2,0,1,2,0,1,2,0,1,2,0,1,2,0,1,2,0,1,2,0,1,2,0,1,2,0,1,2,0,1,2,0,1,2,0,1,2,0,1,2,0,1,2,0,1,2,0,1,2,0,1,2,0,1,2,0,1,2,0,1,2,0,1,2,0,1,2,0,1,2,0,1,2,0,1,2,0,1,2,0,1,2,0,1,2,0,1,2,0,1,2,0,1,2,0,1,2,0,1,2,0,1,2,0,1,2,0,1,2,0,1,2,0,1,2,0,1,2,0,1,2,0,1,2,0,1,2,0,1,2,0,1,2,0,1,2,0,1,2,0,1,2,0,1,2,0,1,2,0,1,2,0,1,2,0,1,2,0,1,2,0,1,2,0,1,2,0,1,2,0,1,2,0,1,2,0,1,2,0,1,2,0,1,2,0,1,2,0,1,2,0,1,2,0,1,2,0,1,2,0,1,2,0,1,2,0,1,2,0,1,2,0,1,2,0,1,2,0,1,2,0,1,2,0,1,2,0,1,2,0,1,2,0,1,2,0,1,2,0,1,2,0,1,2,0,1,2,0,1,2,0,1,2,0,1,2,0,1,2,0,1,2,0,1,2,0,1,2,0,1,2,0,1,2,0,1,2,0,1,2,0,1,2,0,1,2,0,1,2,0,1,2,0,1,2,0,1,2,0,1,2,0,1,2,0,1,2,0,1,2,0,1,2,0,1,2,0,1,2,0,1,2,0,1,2,0,1,2,0,1,2,0,1,2,0,1,2,0,1,2,0,1,2,0,1,2,0,1,2,0,1,2,0,1,2,0,1,2,0,1,2,0,1,2,0,1,2,0,1,2,0,1,2,0,1,2,0,1,2,0,1,2,0,1,2,0,1,2,0,1,2,0,1,2,0,1,2,0,1,2,0,1,2,0,1,2,0,1,2,0,1,2,0,1,2,0,1,2,0,1,2,0,1,2,0,1,2,0,1,2,0,1,2,0,1,2,0,1,2,0,1,2,0,1,2,0,1,2,0,1,2,0,1,2,0,1,2,0,1,2,0,1,2,0,1,2,0,1,2,0,1,2,0,1,2,0,1,2,0,1,2,0,1,2,0,1,2,0,1,2,0,1,2,0,1,2,0,1,2,0,1,2,0,1,2,0,1,2,0,1,2,0,1,2,0,1,2,0,1,2,0,1,2,0,1,2,0,1,2,0,1,2,0,1,2,0,1,2,0,1,2,0,1,2,0,1,2,0,1,2,0,1,2,0,1,2,0,1,2,0,1,2,0,1,2,0,1,2,0,1,2,0,1,2,0,1,2,0,1,2,0,1,2,0,1,2,0,1,2,0,1,2,0,1,2,0,1,2,0,1,2,0,1,2,0,1,2,0,1,2,0,1,2,0,1,2,0,1,2,0,1,2,0,1,2,0,1,2,0,1,2,0,1,2,0,1,2,0,1,2,0,1,2,0,1,2,0,1,2,0,1,2,0,1,2,0,1,2,0,1,2,0,1,2,0,1,2,0,1,2,0,1,2,0,1,2,0,1,2,0,1,2,0,1,2,0,1,2,0,1,2,0,1,2,0,1,2],"trees":[{"base_weights":[-2.3447057E-2,6.2228745E-1,-4.1916367E-1,7.5259425E-2,1.370159E-1,1.3679199E-1,-6.6684896E-1,1.3546257E0,-4.1151989E-1,9.892769E-1,-6.8419415E-1,-3.0647585E-1,-3.666405E-2,2.2191804E-2,6.937575E-2,3.6341715E-1,-5.880363E-1,6.373189E-2,3.127899E-1,-3.1213558E-1,-3.5681438E-2,4.7586855E-1,-3.4601957E-2,4.3193053E-2,-1.9398294E-2,-9.803343E-3,-3.5873335E-2,5.3489614E-2,-2.2047961E-2,-2.355597E-2,5.9004355E-4,-5.3928746E-3,3.2829396E-2],"categories":[],"categories_nodes":[],"categories_segments":[],"categories_sizes":[],"default_left":[0,0,0,0,0,0,0,0,0,0,0,0,0,0,0,0,0,0,0,0,0,0,0,0,0,0,0,0,0,0,0,0,0],"id":0,"left_children":[1,3,5,-1,7,9,11,13,15,17,19,21,-1,-1,-1,23,25,-1,27,29,-1,31,-1,-1,-1,-1,-1,-1,-1,-1,-1,-1,-1],"loss_changes":[7.934645E1,5.0351227E1,2.659848E1,0E0,5.2151802E1,4.278026E1,2.9674416E0,1.0984421E-1,7.6034966E0,5.377493E0,1.1933327E-1,7.107916E0,0E0,0E0,0E0,4.336278E0,2.110981E0,0E0,6.293112E0,2.1503654E-1,0E0,9.1593885E-1,0E0,0E0,0E0,0E0,0E0,0E0,0E0,0E0,0E0,0E0,0E0],"parents":[2147483647,0,0,1,1,2,2,4,4,5,5,6,6,7,7,8,8,9,9,10,10,11,11,15,15,16,16,18,18,19,19,21,21],"right_children":[2,4,6,-1,8,10,12,14,16,18,20,22,-1,-1,-1,24,26,-1,28,30,-1,32,-1,-1,-1,-1,-1,-1,-1,-1,-1,-1,-1],"split_conditions":[5E-1,2E0,1.5E0,7.5259425E-2,-5E-1,1.25E0,1.75E0,5E1,2.25E0,1E0,1E0,1E0,-3.666405E-2,2.2191804E-2,6.937575E-2,2.5E-1,0E0,6.373189E-2,1.25E0,9.1666664E1,-3.5681438E-2,8.333333E0,-3.4601957E-2,4.3193053E-2,-1.9398294E-2,-9.803343E-3,-3.5873335E-2,5.3489614E-2,-2.2047961E-2,-2.355597E-2,5.9004355E-4,-5.3928746E-3,3.2829396E-2],"split_indices":[9,0,0,0,9,9,0,2,0,9,1,9,0,0,0,9,9,0,0,2,0,12,0,0,0,0,0,0,0,0,0,0,0],"split_type":[0,0,0,0,0,0,0,0,0,0,0,0,0,0,0,0,0,0,0,0,0,0,0,0,0,0,0,0,0,0,0,0,0],"sum_hessian":[3.0849893E2,1.1700173E2,1.9149721E2,4.075341E1,7.624832E1,5.915818E1,1.3233904E2,2.3225063E1,5.3023254E1,2.8921776E1,3.0236403E1,2.1472227E1,1.10866806E2,1.3146262E0,2.1910437E1,9.640592E0,4.3382664E1,1.9719393E1,9.202383E0,3.067461E0,2.7168941E1,7.0113397E0,1.4460888E1,5.6967134E0,3.9438787E0,1.1393427E1,3.1989237E1,4.382087E0,4.820296E0,1.7528349E0,1.3146262E0,1.7528349E0,5.258505E0],"tree_param":{"num_deleted":"0","num_feature":"14","num_nodes":"33","size_leaf_vector":"1"}},{"base_weights":[-1.2771318E-2,1.15659714E-1,-3.631152E-2,-5.903451E-1,1.869947E-1,-3.5133507E-2,-1.8417612E-1,-1.9553933E-1,2.5259656E-1,-3.0208215E-2,4.362393E-2,-3.384919E-2,1.091021E0,3.2923242E-1,-1.8296014E-1,-5.501858E-3,6.766232E-2,-2.3344567E-2,2.0627778E-2,5.471262E-2,-2.9517254E-2],"categories":[],"categories_nodes":[],"categories_segments":[],"categories_sizes":[],"default_left":[0,0,0,0,0,0,0,0,0,0,0,0,0,0,0,0,0,0,0,0,0],"id":1,"left_children":[1,3,-1,5,7,-1,9,11,13,-1,-1,-1,15,17,19,-1,-1,-1,-1,-1,-1],"loss_changes":[2.88389E1,1.35474205E1,0E0,9.985981E-1,6.1494627E0,0E0,3.5055666E0,2.312875E1,7.0008535E0,0E0,0E0,0E0,3.3696508E0,1.1945801E1,1.7168257E1,0E0,0E0,0E0,0E0,0E0,0E0],"parents":[2147483647,0,0,1,1,3,3,4,4,6,6,7,7,8,8,12,12,13,13,14,14],"right_children":[2,4,-1,6,8,-1,10,12,14,-1,-1,-1,16,18,20,-1,-1,-1,-1,-1,-1],"split_conditions":[2E0,-5E-1,-3.631152E-2,3E0,1.25E0,-3.5133507E-2,-7.5E-1,1.25E0,2.75E0,-3.0208215E-2,4.362393E-2,-3.384919E-2,8.333333E0,0E0,0E0,-5.501858E-3,6.766232E-2,-2.3344567E-2,2.0627778E-2,5.471262E-2,-2.9517254E-2],"split_indices":[9,9,0,0,0,0,9,9,0,0,0,0,12,9,9,0,0,0,0,0,0],"split_type":[0,0,0,0,0,0,0,0,0,0,0,0,0,0,0,0,0,0,0,0,0],"sum_hessian":[3.1281442E2,2.6580438E2,4.7010033E1,2.372469E1,2.420797E2,1.8013191E1,5.711499E0,3.514769E1,2.0693202E2,4.393461E0,1.3180383E0,2.5921421E1,9.226268E0,1.761778E2,3.0754227E1,1.7573844E0,7.468884E0,1.6255806E1,1.5992198E2,7.0295377E0,2.372469E1],"tree_param":{"num_deleted":"0","num_feature":"14","num_nodes":"21","size_leaf_vector":"1"}},{"base_weights":[7.2707474E-2,-2.0843117E-1,1.3211994E0,-6.366408E-1,1.8084614E-1,7.622887E-1,7.004567E-2,-7.0142144E-1,-7.6285563E-3,-3.588478E-1,8.3787656E-1,5.2644026E-2,1.3156997E-1,-3.7480608E-2,-4.9958003E-1,-4.520873E-1,7.5585365E-1,-5.6305814E-1,4.3130025E-1,5.040139E-1,6.485694E-2,-1.0519391E-3,1.0644867E-2,-3.6300212E-2,2.4236252E-3,-2.926675E-2,-1.3507314E-2,-1.0519391E-3,5.228957E-2,-3.5325613E-2,-9.728383E-3,-3.3541624E-2,6.403712E-2,-2.7267147E-2,4.8370894E-2],"categories":[],"categories_nodes":[],"categories_segments":[],"categories_sizes":[],"default_left":[0,0,0,0,0,0,0,0,0,0,0,0,0,0,0,0,0,0,0,0,0,0,0,0,0,0,0,0,0,0,0,0,0,0,0],"id":2,"left_children":[1,3,5,7,9,11,-1,13,15,17,19,-1,21,-1,23,25,27,29,31,33,-1,-1,-1,-1,-1,-1,-1,-1,-1,-1,-1,-1,-1,-1,-1],"loss_changes":[1.1400442E2,4.4342995E1,1.5914078E0,5.1519547E0,4.98589E1,1.6290536E0,0E0,7.4155045E-1,4.6949625E0,1.273695E1,9.05637E0,0E0,5.641599E-2,0E0,3.1514473E0,5.3618073E-2,1.1695533E0,3.1380138E0,1.6276773E1,1.9154846E1,0E0,0E0,0E0,0E0,0E0,0E0,0E0,0E0,0E0,0E0,0E0,0E0,0E0,0E0,0E0],"parents":[2147483647,0,0,1,1,2,2,3,3,4,4,5,5,7,7,8,8,9,9,10,10,12,12,14,14,15,15,16,16,17,17,18,18,19,19],"right_children":[2,4,6,8,10,12,-1,14,16,18,20,-1,22,-1,24,26,28,30,32,34,-1,-1,-1,-1,-1,-1,-1,-1,-1,-1,-1,-1,-1,-1,-1],"split_conditions":[1.75E0,2E0,2E0,1.5E0,5E-1,3E0,7.004567E-2,1.75E0,1.5E0,3E0,2.5E0,5.2644026E-2,8.3333336E1,-3.7480608E-2,1E0,1.25E0,3E0,2.5E-1,-2.5E-1,7.5E-1,6.485694E-2,-1.0519391E-3,1.0644867E-2,-3.6300212E-2,2.4236252E-3,-2.926675E-2,-1.3507314E-2,-1.0519391E-3,5.228957E-2,-3.5325613E-2,-9.728383E-3,-3.3541624E-2,6.403712E-2,-2.7267147E-2,4.8370894E-2],"split_indices":[9,0,9,9,9,5,0,0,0,0,0,0,2,0,9,0,1,9,9,9,0,0,0,0,0,0,0,0,0,0,0,0,0,0,0],"split_type":[0,0,0,0,0,0,0,0,0,0,0,0,0,0,0,0,0,0,0,0,0,0,0,0,0,0,0,0,0,0,0,0,0,0,0],"sum_hessian":[3.2301498E2,2.6432635E2,5.868864E1,1.2556639E2,1.3875996E2,8.644063E0,5.0044575E1,1.1373767E2,1.1828718E1,7.643172E1,6.2328243E1,5.4594083E0,3.1846547E0,8.962528E1,2.4112387E1,7.734162E0,4.0945563E0,6.0963394E1,1.5468324E1,3.7305958E1,2.5022287E1,1.3648521E0,1.8198028E0,1.6833176E1,7.279211E0,3.1846547E0,4.549507E0,1.3648521E0,2.7297041E0,4.3220314E1,1.7743076E1,6.82426E0,8.644063E0,1.1373767E1,2.593219E1],"tree_param":{"num_deleted":"0","num_feature":"14","num_nodes":"35","size_leaf_vector":"1"}},{"base_weights":[-3.793935E-2,4.5877865E-1,-3.4128973E-1,1.0268093E0,2.5161195E-1,-4.5574555E-1,7.426612E-3,5.5015035E-2,4.029104E-1,3.7680483E-1,-1.8139966E-1,-1.2093719E-1,-5.473088E-1,-1.3960753E-1,4.237644E-1,-2.0680262E-2,4.0119022E-2,5.236008E-1,-1.503824E-2,-2.22085E-1,5.7895007E-3,1.603145E-1,-3.0875787E-1,-3.0786407E-1,-6.208227E-1,-6.384353E-2,-2.9674247E-2,6.460316E-1,-2.503032E-2,9.631141E-3,3.7341114E-2,6.1660516E-3,-1.5966037E-2,-1.5477937E-3,-1.5104975E-2,3.2449897E-2,-1.8135583E-3,1.0866887E-2,-2.235223E-2,1.4152161E-2,-2.5999455E-2,-2.5317201E-2,-3.471687E-2,-1.8643178E-2,6.35551E-3,3.657348E-2,1.9019037E-4],"categories":[],"categories_nodes":[],"categories_segments":[],"categories_sizes":[],"default_left":[0,0,0,0,0,0,0,0,0,0,0,0,0,0,0,0,0,0,0,0,0,0,0,0,0,0,0,0,0,0,0,0,0,0,0,0,0,0,0,0,0,0,0,0,0,0,0],"id":3,"left_children":[1,3,5,7,9,11,13,-1,15,17,19,21,23,25,27,-1,-1,29,31,33,-1,35,37,39,41,43,-1,45,-1,-1,-1,-1,-1,-1,-1,-1,-1,-1,-1,-1,-1,-1,-1,-1,-1,-1,-1],"loss_changes":[4.8609768E1,1.4139372E1,7.994482E0,1.0409966E0,5.0002093E0,4.5553856E0,3.148092E0,0E0,1.9592065E0,4.085985E0,2.8058863E-1,1.827495E0,1.8876724E0,1.2702954E0,3.0800781E0,0E0,0E0,3.6687078E0,8.9376026E-1,2.7943677E-1,0E0,1.3814937E0,1.5902499E0,3.8730521E0,4.0056992E-1,2.037225E0,0E0,6.146779E-1,0E0,0E0,0E0,0E0,0E0,0E0,0E0,0E0,0E0,0E0,0E0,0E0,0E0,0E0,0E0,0E0,0E0,0E0,0E0],"parents":[2147483647,0,0,1,1,2,2,3,3,4,4,5,5,6,6,8,8,9,9,10,10,11,11,12,12,13,13,14,14,17,17,18,18,19,19,21,21,22,22,23,23,24,24,25,25,27,27],"right_children":[2,4,6,8,10,12,14,-1,16,18,20,22,24,26,28,-1,-1,30,32,34,-1,36,38,40,42,44,-1,46,-1,-1,-1,-1,-1,-1,-1,-1,-1,-1,-1,-1,-1,-1,-1,-1,-1,-1,-1],"split_conditions":[1.75E0,1E0,9.1666664E1,5.8333332E1,7E0,1.4433756E-1,2.75E0,5.5015035E-2,1.4433756E-1,1.5E0,5E0,6.6666664E1,1E0,3.3333332E1,2.5E-1,-2.0680262E-2,4.0119022E-2,8.3333336E1,3E0,3.3333332E1,5.7895007E-3,1E2,1E0,2.25E0,2.5E-1,5E0,-2.9674247E-2,2.5E1,-2.503032E-2,9.631141E-3,3.7341114E-2,6.1660516E-3,-1.5966037E-2,-1.5477937E-3,-1.5104975E-2,3.2449897E-2,-1.8135583E-3,1.0866887E-2,-2.235223E-2,1.4152161E-2,-2.5999455E-2,-2.5317201E-2,-3.471687E-2,-1.8643178E-2,6.35551E-3,3.657348E-2,1.9019037E-4],"split_indices":[0,1,2,12,13,10,0,0,10,0,5,2,1,12,10,0,0,2,1,12,0,12,1,0,10,13,0,12,0,0,0,0,0,0,0,0,0,0,0,0,0,0,0,0,0,0,0],"split_type":[0,0,0,0,0,0,0,0,0,0,0,0,0,0,0,0,0,0,0,0,0,0,0,0,0,0,0,0,0,0,0,0,0,0,0,0,0,0,0,0,0,0,0,0,0,0,0],"sum_hessian":[3.205644E2,1.213495E2,1.9921489E2,3.1372568E1,8.997694E1,1.4975523E2,4.9459644E1,2.738339E1,3.9891777E0,6.98978E1,2.0079138E1,3.2658318E1,1.17096924E2,3.70424E1,1.2417243E1,1.298882E0,2.6902957E0,5.060385E1,1.9293947E1,1.7883587E1,2.1955512E0,1.3135315E1,1.9523E1,2.872466E1,8.837226E1,3.272106E1,4.321338E0,1.0252997E1,2.1642456E0,2.113266E1,2.9471191E1,1.367194E1,5.622007E0,5.6867146E0,1.2196872E1,3.1079793E0,1.0027336E1,3.9445968E0,1.5578403E1,7.4994493E0,2.1225212E1,3.764237E1,5.0729893E1,1.2133236E1,2.0587828E1,8.926512E0,1.3264853E0],"tree_param":{"num_deleted":"0","num_feature":"14","num_nodes":"47","size_leaf_vector":"1"}},{"base_weights":[-2.976875E-2,9.147521E-2,-3.5650585E-2,-6.1647767E-1,1.6017146E-1,-3.4659248E-2,-1.794034E-1,-2.0393737E-1,2.199297E-1,-2.6404915E-2,2.1899745E-2,-6.6386515E-1,1.01324E0,2.9022032E-1,-1.6918829E-1,-3.4885462E-2,-1.7195499E-2,-5.3070122E-3,6.3156575E-2,-1.6597947E-2,1.7598819E-2,5.7170134E-2,-2.7597902E-2],"categories":[],"categories_nodes":[],"categories_segments":[],"categories_sizes":[],"default_left":[0,0,0,0,0,0,0,0,0,0,0,0,0,0,0,0,0,0,0,0,0,0,0],"id":4,"left_children":[1,3,-1,5,7,-1,9,11,13,-1,-1,15,17,19,21,-1,-1,-1,-1,-1,-1,-1,-1],"loss_changes":[2.6105145E1,1.312553E1,0E0,6.768837E-1,5.3747396E0,0E0,1.2899028E0,2.0296186E1,5.81758E0,0E0,0E0,4.207802E-2,2.9338036E0,6.994711E0,1.716092E1,0E0,0E0,0E0,0E0,0E0,0E0,0E0,0E0],"parents":[2147483647,0,0,1,1,3,3,4,4,6,6,7,7,8,8,11,11,12,12,13,13,14,14],"right_children":[2,4,-1,6,8,-1,10,12,14,-1,-1,16,18,20,22,-1,-1,-1,-1,-1,-1,-1,-1],"split_conditions":[2E0,-5E-1,-3.5650585E-2,1.3333333E2,1.25E0,-3.4659248E-2,2E0,1.25E0,2.75E0,-2.6404915E-2,2.1899745E-2,1E0,8.333333E0,0E0,0E0,-3.4885462E-2,-1.7195499E-2,-5.3070122E-3,6.3156575E-2,-1.6597947E-2,1.7598819E-2,5.7170134E-2,-2.7597902E-2],"split_indices":[9,9,0,12,0,0,1,9,0,0,0,9,12,9,9,0,0,0,0,0,0,0,0],"split_type":[0,0,0,0,0,0,0,0,0,0,0,0,0,0,0,0,0,0,0,0,0,0,0],"sum_hessian":[3.1334344E2,2.6685513E2,4.6488308E1,2.2898584E1,2.4395656E2,1.8981358E1,3.9172268E0,3.4053688E1,2.0990288E2,2.5958045E0,1.3214222E0,2.5044756E1,9.008932E0,1.780025E2,3.1900373E1,2.1581291E1,3.463466E0,1.7491102E0,7.2598214E0,1.567769E1,1.6232481E2,6.7536454E0,2.5146729E1],"tree_param":{"num_deleted":"0","num_feature":"14","num_nodes":"23","size_leaf_vector":"1"}},{"base_weights":[7.3164955E-2,-2.1193802E-1,1.2598758E0,-6.2189597E-1,1.4585936E-1,8.3923775E-1,6.55585E-2,-6.865622E-1,2.0490972E-2,-3.7590238E-1,7.7763855E-1,5.825491E-2,1.292327E-1,-3.6279928E-2,-4.268376E-1,-4.2692816E-1,7.3197544E-1,-5.6216335E-1,3.8869318E-1,4.5490044E-1,6.1404653E-2,1.9923681E-2,-7.130588E-3,-3.1886008E-2,2.5240397E-2,4.233063E-3,-3.17408E-2,-1.1348182E-3,5.0560124E-2,-3.0861167E-2,1.884225E-2,-3.2803092E-2,6.0140856E-2,-2.7732516E-2,4.6292163E-2],"categories":[],"categories_nodes":[],"categories_segments":[],"categories_sizes":[],"default_left":[0,0,0,0,0,0,0,0,0,0,0,0,0,0,0,0,0,0,0,0,0,0,0,0,0,0,0,0,0,0,0,0,0,0,0],"id":5,"left_children":[1,3,5,7,9,11,-1,13,15,17,19,-1,21,-1,23,25,27,29,31,33,-1,-1,-1,-1,-1,-1,-1,-1,-1,-1,-1,-1,-1,-1,-1],"loss_changes":[1.1195062E2,3.9256405E1,2.8237915E-1,5.1910934E0,4.755777E1,2.1038017E0,0E0,8.385582E-1,4.2499766E0,1.1498387E1,8.917297E0,0E0,3.6349788E-1,0E0,3.7064445E0,9.2853737E-1,1.1068637E0,3.546587E0,1.4488607E1,1.932302E1,0E0,0E0,0E0,0E0,0E0,0E0,0E0,0E0,0E0,0E0,0E0,0E0,0E0,0E0,0E0],"parents":[2147483647,0,0,1,1,2,2,3,3,4,4,5,5,7,7,8,8,9,9,10,10,12,12,14,14,15,15,16,16,17,17,18,18,19,19],"right_children":[2,4,6,8,10,12,-1,14,16,18,20,-1,22,-1,24,26,28,30,32,34,-1,-1,-1,-1,-1,-1,-1,-1,-1,-1,-1,-1,-1,-1,-1],"split_conditions":[1.75E0,2E0,2E0,1.5E0,5E-1,3E0,6.55585E-2,1.25E0,1.5E0,3E0,2.5E0,5.825491E-2,5.8333332E1,-3.6279928E-2,1.75E0,3.3333332E1,3E0,1.6666667E2,-2.5E-1,7.5E-1,6.1404653E-2,1.9923681E-2,-7.130588E-3,-3.1886008E-2,2.5240397E-2,4.233063E-3,-3.17408E-2,-1.1348182E-3,5.0560124E-2,-3.0861167E-2,1.884225E-2,-3.2803092E-2,6.0140856E-2,-2.7732516E-2,4.6292163E-2],"split_indices":[9,0,9,9,9,5,0,9,0,0,0,0,12,0,0,12,1,12,9,9,0,0,0,0,0,0,0,0,0,0,0,0,0,0,0],"split_type":[0,0,0,0,0,0,0,0,0,0,0,0,0,0,0,0,0,0,0,0,0,0,0,0,0,0,0,0,0,0,0,0,0,0,0],"sum_hessian":[3.2909793E2,2.6601114E2,6.3086807E1,1.23625305E2,1.4238583E2,8.743886E0,5.4342922E1,1.1225621E2,1.1369095E1,7.8204666E1,6.418116E1,5.553916E0,3.18997E0,9.602937E1,1.622684E1,7.2253556E0,4.143739E0,6.3098236E1,1.5106428E1,3.856225E1,2.5618914E1,1.3686316E0,1.8213385E0,1.3489023E1,2.7378154E0,2.2589874E0,4.966368E0,1.3672271E0,2.7765121E0,5.9927025E1,3.171209E0,6.701118E0,8.405311E0,1.2210054E1,2.6352194E1],"tree_param":{"num_deleted":"0","num_feature":"14","num_nodes":"35","size_leaf_vector":"1"}},{"base_weights":[-3.8837254E-2,4.1739106E-1,-3.2012603E-1,9.625337E-1,2.1944083E-1,-4.572131E-1,5.576063E-2,5.156098E-2,3.872793E-1,3.3119658E-1,-2.8127322E-1,-1.0499936E-1,-5.4984474E-1,2.1550426E-1,-2.8795606E-1,-2.0375594E-2,3.844934E-2,6.477211E-1,1.6459502E-1,-1.4979611E-1,-2.895433E-2,-2.0546155E-1,3.2850778E-1,-3.1625152E-1,-6.192808E-1,3.3328855E-1,-2.617007E-1,2.1046855E-1,-5.7530475E-1,4.768626E-2,1.3042608E-2,1.6996939E-2,-7.7158E-4,-1.4138716E-2,1.3645484E-2,-3.0566694E-3,-2.556982E-2,2.556461E-2,-4.8447344E-3,1.302877E-2,-2.533415E-2,-2.070517E-2,-3.3246193E-2,3.377856E-2,9.859201E-3,-2.316321E-2,2.0646185E-2,3.0335307E-2,-2.4470123E-2,-3.2688286E-2,6.539011E-4],"categories":[],"categories_nodes":[],"categories_segments":[],"categories_sizes":[],"default_left":[0,0,0,0,0,0,0,0,0,0,0,0,0,0,0,0,0,0,0,0,0,0,0,0,0,0,0,0,0,0,0,0,0,0,0,0,0,0,0,0,0,0,0,0,0,0,0,0,0,0,0],"id":6,"left_children":[1,3,5,7,9,11,13,-1,15,17,19,21,23,25,27,-1,-1,29,31,33,-1,35,37,39,41,43,45,47,49,-1,-1,-1,-1,-1,-1,-1,-1,-1,-1,-1,-1,-1,-1,-1,-1,-1,-1,-1,-1,-1,-1],"loss_changes":[4.0890602E1,1.29067745E1,1.0178165E1,8.684635E-1,5.1559525E0,4.656172E0,3.0020223E0,0E0,1.8375497E0,3.8181238E0,5.80842E-1,1.4316076E0,1.6558113E0,2.174058E0,2.6156301E0,0E0,0E0,2.7492075E0,1.5867767E0,8.1784886E-1,0E0,1.118724E0,5.3768337E-1,3.2299445E0,5.390091E-1,1.2745111E0,1.2668834E0,2.2662766E0,5.309491E-1,0E0,0E0,0E0,0E0,0E0,0E0,0E0,0E0,0E0,0E0,0E0,0E0,0E0,0E0,0E0,0E0,0E0,0E0,0E0,0E0,0E0,0E0],"parents":[2147483647,0,0,1,1,2,2,3,3,4,4,5,5,6,6,8,8,9,9,10,10,11,11,12,12,13,13,14,14,17,17,18,18,19,19,21,21,22,22,23,23,24,24,25,25,26,26,27,27,28,28],"right_children":[2,4,6,8,10,12,14,-1,16,18,20,22,24,26,28,-1,-1,30,32,34,-1,36,38,40,42,44,46,48,50,-1,-1,-1,-1,-1,-1,-1,-1,-1,-1,-1,-1,-1,-1,-1,-1,-1,-1,-1,-1,-1,-1],"split_conditions":[1.75E0,1E0,9.1666664E1,5.8333332E1,4E0,2.5E-1,5E-1,5.156098E-2,2.5E-1,1.25E0,1.5E0,4E0,1E0,3E0,5E0,-2.0375594E-2,3.844934E-2,3E0,4.1666668E1,1E2,-2.895433E-2,3E0,3E0,2.25E0,4.1666668E1,2E0,3E0,2.5E0,7E0,4.768626E-2,1.3042608E-2,1.6996939E-2,-7.7158E-4,-1.4138716E-2,1.3645484E-2,-3.0566694E-3,-2.556982E-2,2.556461E-2,-4.8447344E-3,1.302877E-2,-2.533415E-2,-2.070517E-2,-3.3246193E-2,3.377856E-2,9.859201E-3,-2.316321E-2,2.0646185E-2,3.0335307E-2,-2.4470123E-2,-3.2688286E-2,6.539011E-4],"split_indices":[0,1,2,12,6,11,11,0,11,0,0,6,1,1,13,0,0,5,12,2,0,1,5,0,12,5,0,0,13,0,0,0,0,0,0,0,0,0,0,0,0,0,0,0,0,0,0,0,0,0,0],"split_type":[0,0,0,0,0,0,0,0,0,0,0,0,0,0,0,0,0,0,0,0,0,0,0,0,0,0,0,0,0,0,0,0,0,0,0,0,0,0,0,0,0,0,0,0,0,0,0,0,0,0,0],"sum_hessian":[3.1659042E2,1.20562935E2,1.9602748E2,3.1087471E1,8.9475464E1,1.4348256E2,5.254491E1,2.7063442E1,4.024029E0,7.342589E1,1.6049574E1,3.0322115E1,1.1316045E2,3.6127525E1,1.6417385E1,1.2836373E0,2.7403917E0,2.432439E1,4.91015E1,1.2176807E1,3.8727667E0,2.5044321E1,5.277794E0,2.7202353E1,8.59581E1,2.9217587E1,6.909938E0,6.101498E0,1.0315887E1,1.2763515E1,1.1560875E1,2.442428E1,2.4677221E1,9.514649E0,2.662158E0,1.7831799E1,7.212523E0,3.5503843E0,1.7274098E0,6.6601286E0,2.0542223E1,1.7475185E1,6.848291E1,7.1849337E0,2.2032652E1,5.5615616E0,1.3483765E0,3.9808338E0,2.1206641E0,9.004069E0,1.3118181E0],"tree_param":{"num_deleted":"0","num_feature":"14","num_nodes":"51","size_leaf_vector":"1"}},{"base_weights":[-4.0635884E-2,7.814529E-2,-3.4961518E-2,-5.700243E-1,1.4036743E-1,-3.4290966E-2,-1.3180625E-1,4.120919E-2,3.7338448E-1,-2.8797293E-2,4.2148292E-2,-5.2281404E-1,3.653556E-1,7.084992E-1,-5.573819E-1,-3.2024898E-2,-6.363938E-3,2.8951123E-2,-8.189275E-3,4.4019558E-2,-8.034233E-3,-1.8200574E-2,-3.389368E-2],"categories":[],"categories_nodes":[],"categories_segments":[],"categories_sizes":[],"default_left":[0,0,0,0,0,0,0,0,0,0,0,0,0,0,0,0,0,0,0,0,0,0,0],"id":7,"left_children":[1,3,-1,5,7,-1,9,11,13,-1,-1,15,17,19,21,-1,-1,-1,-1,-1,-1,-1,-1],"loss_changes":[2.4798243E1,1.0923613E1,0E0,1.1146269E0,5.671377E0,0E0,3.1702955E0,3.1961628E1,2.3272507E1,0E0,0E0,2.8897552E0,1.2638012E1,8.264584E0,2.1868753E-1,0E0,0E0,0E0,0E0,0E0,0E0,0E0,0E0],"parents":[2147483647,0,0,1,1,3,3,4,4,6,6,7,7,8,8,11,11,12,12,13,13,14,14],"right_children":[2,4,-1,6,8,-1,10,12,14,-1,-1,16,18,20,22,-1,-1,-1,-1,-1,-1,-1,-1],"split_conditions":[2E0,-5E-1,-3.4961518E-2,3E0,1E0,-3.4290966E-2,-7.5E-1,1.75E0,2E0,-2.8797293E-2,4.2148292E-2,7.5E-1,2.75E0,1.75E0,2.25E0,-3.2024898E-2,-6.363938E-3,2.8951123E-2,-8.189275E-3,4.4019558E-2,-8.034233E-3,-1.8200574E-2,-3.389368E-2],"split_indices":[9,9,0,0,9,0,9,0,0,0,0,9,0,9,0,0,0,0,0,0,0,0,0],"split_type":[0,0,0,0,0,0,0,0,0,0,0,0,0,0,0,0,0,0,0,0,0,0,0],"sum_hessian":[3.152986E2,2.678684E2,4.7430214E1,2.2747374E1,2.4512103E2,1.7545996E1,5.2013783E0,1.7277505E2,7.234598E1,3.8543518E0,1.3470267E0,6.283231E1,1.0994275E2,5.3369522E1,1.8976454E1,4.7947216E1,1.4885093E1,7.825084E1,3.169191E1,4.454692E1,8.822602E0,8.828743E0,1.0147712E1],"tree_param":{"num_deleted":"0","num_feature":"14","num_nodes":"23","size_leaf_vector":"1"}},{"base_weights":[5.7977088E-2,-2.1516673E-1,1.1781315E0,-5.131608E-1,1.6087906E-2,6.822646E-1,6.199805E-2,-6.089389E-1,-2.5513956E-1,1.7113039E-1,-3.1098768E-1,4.8965514E-2,-2.8292995E-2,-4.785894E-1,-3.451493E-2,-4.5813152E-1,1.6514634E-1,6.8949753E-1,1.09394655E-1,2.8030622E-1,-4.388906E-1,1.9454418E-2,-2.1905486E-2,-3.447943E-2,-1.7366553E-2,-2.6328811E-2,1.0231397E-2,-3.6852737E-3,2.9770477E-2,-2.1403475E-2,4.4716947E-2,1.1985516E-2,3.4269335E-5,4.6413172E-2,-3.7855771E-3,-2.5641788E-2,-6.4466665E-3],"categories":[],"categories_nodes":[],"categories_segments":[],"categories_sizes":[],"default_left":[0,0,0,0,0,0,0,0,0,0,0,0,0,0,0,0,0,0,0,0,0,0,0,0,0,0,0,0,0,0,0,0,0,0,0,0,0],"id":8,"left_children":[1,3,5,7,9,11,-1,13,15,17,19,-1,21,23,-1,25,27,29,31,33,35,-1,-1,-1,-1,-1,-1,-1,-1,-1,-1,-1,-1,-1,-1,-1,-1],"loss_changes":[1.0048062E2,1.8215328E1,1.1276627E0,2.6983337E0,7.646164E0,2.0033422E0,0E0,5.5509186E-1,2.8894768E0,3.19594E0,3.79147E0,0E0,8.0870855E-1,7.3943233E-1,0E0,1.1286316E0,1.2233303E0,2.8301191E0,1.310723E0,2.2010367E0,8.568511E-1,0E0,0E0,0E0,0E0,0E0,0E0,0E0,0E0,0E0,0E0,0E0,0E0,0E0,0E0,0E0,0E0],"parents":[2147483647,0,0,1,1,2,2,3,3,4,4,5,5,7,7,8,8,9,9,10,10,12,12,13,13,15,15,16,16,17,17,18,18,19,19,20,20],"right_children":[2,4,6,8,10,12,-1,14,16,18,20,-1,22,24,-1,26,28,30,32,34,36,-1,-1,-1,-1,-1,-1,-1,-1,-1,-1,-1,-1,-1,-1,-1,-1],"split_conditions":[1.75E0,5E-1,2E0,6.6666664E1,9.1666664E1,6E0,6.199805E-2,9.1666664E1,2.5E-1,5.8333332E1,1.4433756E-1,4.8965514E-2,5.8333332E1,0E0,-3.451493E-2,3.818813E-1,2E0,2E0,3E0,2E0,4E0,1.9454418E-2,-2.1905486E-2,-3.447943E-2,-1.7366553E-2,-2.6328811E-2,1.0231397E-2,-3.6852737E-3,2.9770477E-2,-2.1403475E-2,4.4716947E-2,1.1985516E-2,3.4269335E-5,4.6413172E-2,-3.7855771E-3,-2.5641788E-2,-6.4466665E-3],"split_indices":[9,9,9,12,2,13,0,2,9,2,10,0,12,9,0,10,1,6,6,6,6,0,0,0,0,0,0,0,0,0,0,0,0,0,0,0,0],"split_type":[0,0,0,0,0,0,0,0,0,0,0,0,0,0,0,0,0,0,0,0,0,0,0,0,0,0,0,0,0,0,0,0,0,0,0,0,0],"sum_hessian":[3.26579E2,2.632056E2,6.3373405E1,1.1447474E2,1.4873088E2,8.360179E0,5.5013226E1,8.2493095E1,3.1981644E1,1.0122455E2,4.7506325E1,5.628839E0,2.7313402E0,3.4346928E1,4.8146164E1,2.1504997E1,1.0476647E1,9.690367E0,9.153418E1,8.236679E0,3.9269646E1,1.3782396E0,1.3531005E0,1.1540988E1,2.280594E1,1.9678259E1,1.8267387E0,7.269712E0,3.2069352E0,1.3322357E0,8.358131E0,4.108196E1,5.045222E1,2.350814E0,5.885865E0,3.1177282E1,8.092362E0],"tree_param":{"num_deleted":"0","num_feature":"14","num_nodes":"37","size_leaf_vector":"1"}},{"base_weights":[-2.304955E-2,3.2499865E-1,-6.1686057E-1,1.1624646E0,-9.823371E-2,-9.569384E-2,-3.4907546E-2,6.235328E-2,8.581981E-1,8.71615E-1,-5.376312E-1,5.5619795E-2,-5.8601797E-1,1.013726E0,-4.422049E-3,6.2071938E-2,3.353165E-1,1.759069E-1,-6.463027E-1,-3.280876E-2,1.7909794E-4,5.9732098E-2,3.1730182E-2,-2.1544568E-2,2.1190247E-2,5.807329E-2,-1.8941035E-2,6.0451727E-2,-3.162084E-2,-2.014305E-2,-3.5244342E-2],"categories":[],"categories_nodes":[],"categories_segments":[],"categories_sizes":[],"default_left":[0,0,0,0,0,0,0,0,0,0,0,0,0,0,0,0,0,0,0,0,0,0,0,0,0,0,0,0,0,0,0],"id":9,"left_children":[1,3,5,7,9,11,-1,-1,13,15,17,-1,19,21,23,-1,25,27,29,-1,-1,-1,-1,-1,-1,-1,-1,-1,-1,-1,-1],"loss_changes":[6.430996E1,6.966385E1,4.804085E0,6.2745667E-1,5.6409298E1,1.05277605E1,0E0,0E0,2.3597307E0,7.777193E0,7.1667767E0,0E0,5.199876E-1,2.623453E-1,8.541889E-1,0E0,1.119581E1,1.1460708E1,8.448677E-1,0E0,0E0,0E0,0E0,0E0,0E0,0E0,0E0,0E0,0E0,0E0,0E0],"parents":[2147483647,0,0,1,1,2,2,3,3,4,4,5,5,8,8,9,9,10,10,12,12,13,13,14,14,16,16,17,17,18,18],"right_children":[2,4,6,8,10,12,-1,-1,14,16,18,-1,20,22,24,-1,26,28,30,-1,-1,-1,-1,-1,-1,-1,-1,-1,-1,-1,-1],"split_conditions":[1E0,1.75E0,1.25E0,7.5E-1,0E0,1.25E0,-3.4907546E-2,6.235328E-2,1.5E0,-5E-1,2E0,5.5619795E-2,1E2,1.25E0,2E0,6.2071938E-2,2.5E0,5E-1,2.25E0,-3.280876E-2,1.7909794E-4,5.9732098E-2,3.1730182E-2,-2.1544568E-2,2.1190247E-2,5.807329E-2,-1.8941035E-2,6.0451727E-2,-3.162084E-2,-2.014305E-2,-3.5244342E-2],"split_indices":[9,0,0,9,9,9,0,0,0,9,0,0,2,0,1,0,0,9,0,0,0,0,0,0,0,0,0,0,0,0,0],"split_type":[0,0,0,0,0,0,0,0,0,0,0,0,0,0,0,0,0,0,0,0,0,0,0,0,0,0,0,0,0,0,0],"sum_hessian":[3.091949E2,1.9522253E2,1.1397235E2,6.49523E1,1.3027023E2,1.5672211E1,9.830014E1,4.8396984E1,1.6555317E1,4.0311054E1,8.995918E1,4.1582274E0,1.1513984E1,1.3877986E1,2.6773312E0,2.3080345E1,1.7230707E1,1.1808137E1,7.815105E1,1.0188702E1,1.3252819E0,7.938628E0,5.9393578E0,1.3383012E0,1.33903E0,7.6984124E0,9.532294E0,4.965695E0,6.8424416E0,1.6686842E1,6.1464203E1],"tree_param":{"num_deleted":"0","num_feature":"14","num_nodes":"31","size_leaf_vector":"1"}},{"base_weights":[-3.5413392E-2,8.2563415E-2,-3.433441E-2,-5.6382203E-1,1.4274359E-1,-3.4036543E-2,-1.3378806E-1,3.3405483E-2,3.8741103E-1,-2.8602872E-2,4.067365E-2,-5.197465E-1,3.294639E-1,7.026854E-1,-5.4978424E-1,-3.227594E-2,-7.4519003E-3,2.66188E-2,-8.694213E-3,4.3618012E-2,-8.747402E-3,-1.8755151E-2,-3.3324566E-2],"categories":[],"categories_nodes":[],"categories_segments":[],"categories_sizes":[],"default_left":[0,0,0,0,0,0,0,0,0,0,0,0,0,0,0,0,0,0,0,0,0,0,0],"id":10,"left_children":[1,3,-1,5,7,-1,9,11,13,-1,-1,15,17,19,21,-1,-1,-1,-1,-1,-1,-1,-1],"loss_changes":[2.4478554E1,1.0583085E1,0E0,1.0752044E0,6.615929E0,0E0,3.0406406E0,2.839703E1,2.297217E1,0E0,0E0,2.7234707E0,1.1621557E1,8.73546E0,1.5370178E-1,0E0,0E0,0E0,0E0,0E0,0E0,0E0,0E0],"parents":[2147483647,0,0,1,1,3,3,4,4,6,6,7,7,8,8,11,11,12,12,13,13,14,14],"right_children":[2,4,-1,6,8,-1,10,12,14,-1,-1,16,18,20,22,-1,-1,-1,-1,-1,-1,-1,-1],"split_conditions":[2E0,-5E-1,-3.433441E-2,3E0,1E0,-3.4036543E-2,-7.5E-1,1.75E0,2E0,-2.8602872E-2,4.067365E-2,7.5E-1,2.75E0,1.75E0,2.25E0,-3.227594E-2,-7.4519003E-3,2.66188E-2,-8.694213E-3,4.3618012E-2,-8.747402E-3,-1.8755151E-2,-3.3324566E-2],"split_indices":[9,9,0,0,9,0,9,0,0,0,0,9,0,9,0,0,0,0,0,0,0,0,0],"split_type":[0,0,0,0,0,0,0,0,0,0,0,0,0,0,0,0,0,0,0,0,0,0,0],"sum_hessian":[3.1684677E2,2.6899265E2,4.7854122E1,2.2198055E1,2.467946E2,1.6994867E1,5.2031865E0,1.7135516E2,7.5439445E1,3.8281221E0,1.3750645E0,5.947578E1,1.1187938E2,5.6636898E1,1.8802544E1,4.38554E1,1.5620378E1,7.969477E1,3.2184605E1,4.7466167E1,9.170731E0,9.218623E0,9.5839205E0],"tree_param":{"num_deleted":"0","num_feature":"14","num_nodes":"23","size_leaf_vector":"1"}},{"base_weights":[5.5258084E-2,-2.0957015E-1,5.6865096E-2,-6.0128343E-1,1.2241144E-1,-6.5837866E-1,-1.6457533E-2,-3.432618E-1,7.249816E-1,-3.5764955E-2,-4.1889584E-1,-5.1617485E-1,7.2510886E-1,-5.520409E-1,4.236875E-1,4.1092303E-1,5.9475213E-2,-2.8171113E-2,2.4591831E-2,-3.2429714E-5,-3.1275924E-2,-8.2954235E-4,4.973653E-2,-2.9593004E-2,1.8282002E-2,-3.242306E-2,5.8403205E-2,-1.1253333E-2,5.644353E-2],"categories":[],"categories_nodes":[],"categories_segments":[],"categories_sizes":[],"default_left":[0,0,0,0,0,0,0,0,0,0,0,0,0,0,0,0,0,0,0,0,0,0,0,0,0,0,0,0,0],"id":11,"left_children":[1,3,-1,5,7,9,11,13,15,-1,17,19,21,23,25,27,-1,-1,-1,-1,-1,-1,-1,-1,-1,-1,-1,-1,-1],"loss_changes":[9.377692E1,3.428561E1,0E0,4.024597E0,4.0439465E1,1.2009087E0,4.737774E0,1.3279355E1,8.666946E0,0E0,3.3772244E0,4.2905927E-1,1.0476356E0,2.5723438E0,1.5121685E1,1.8048746E1,0E0,0E0,0E0,0E0,0E0,0E0,0E0,0E0,0E0,0E0,0E0,0E0,0E0],"parents":[2147483647,0,0,1,1,3,3,4,4,5,5,6,6,7,7,8,8,10,10,11,11,12,12,13,13,14,14,15,15],"right_children":[2,4,-1,6,8,10,12,14,16,-1,18,20,22,24,26,28,-1,-1,-1,-1,-1,-1,-1,-1,-1,-1,-1,-1,-1],"split_conditions":[1.75E0,2E0,5.6865096E-2,1.5E0,5E-1,1.75E0,1.5E0,3E0,2.5E0,-3.5764955E-2,1.25E0,2.5E1,3E0,1.6666667E2,-2.5E-1,1E0,5.9475213E-2,-2.8171113E-2,2.4591831E-2,-3.2429714E-5,-3.1275924E-2,-8.2954235E-4,4.973653E-2,-2.9593004E-2,1.8282002E-2,-3.242306E-2,5.8403205E-2,-1.1253333E-2,5.644353E-2],"split_indices":[9,0,0,9,9,0,0,0,0,0,9,12,1,12,9,9,0,0,0,0,0,0,0,0,0,0,0,0,0],"split_type":[0,0,0,0,0,0,0,0,0,0,0,0,0,0,0,0,0,0,0,0,0,0,0,0,0,0,0,0,0],"sum_hessian":[3.254236E2,2.620851E2,6.3338524E1,1.1985456E2,1.4223055E2,1.0907959E2,1.0774966E1,8.047154E1,6.1759007E1,8.652696E1,2.255263E1,6.618748E0,4.1562176E0,6.34731E1,1.6998444E1,3.7971508E1,2.3787497E1,1.9792984E1,2.7596457E0,1.3342142E0,5.284534E0,1.35826E0,2.7979577E0,6.1173748E1,2.2993505E0,7.0184317E0,9.980012E0,2.0499054E1,1.7472454E1],"tree_param":{"num_deleted":"0","num_feature":"14","num_nodes":"29","size_leaf_vector":"1"}},{"base_weights":[-3.4540325E-2,3.2719055E-1,-6.2668806E-1,1.0745711E0,-9.0257324E-2,-2.5431028E-1,-3.439311E-2,1.1760393E0,7.267631E-1,9.612597E-1,-4.7122288E-1,4.221752E-2,-5.974382E-1,6.033763E-2,6.193104E-1,5.7360817E-2,2.805384E-1,1.1671678E0,4.2194423E-1,1.5779367E-1,-5.776848E-1,-9.52082E-3,-3.269995E-2,4.5585673E-2,-2.4321373E-3,2.9834894E-2,-4.532333E-3,5.9811015E-2,1.9994963E-2,5.2927878E-2,-2.8829312E-2,5.886386E-2,-3.1706616E-2,-1.5624322E-3,-3.1533375E-2],"categories":[],"categories_nodes":[],"categories_segments":[],"categories_sizes":[],"default_left":[0,0,0,0,0,0,0,0,0,0,0,0,0,0,0,0,0,0,0,0,0,0,0,0,0,0,0,0,0,0,0,0,0,0,0],"id":12,"left_children":[1,3,5,7,9,11,-1,13,15,17,19,-1,21,-1,23,-1,25,27,29,31,33,-1,-1,-1,-1,-1,-1,-1,-1,-1,-1,-1,-1,-1,-1],"loss_changes":[6.651337E1,6.025807E1,2.5070953E0,1.5868683E0,5.0385048E1,7.3652043E0,0E0,1.4076996E-1,3.100749E0,3.2252617E0,6.263277E0,0E0,2.082119E-1,0E0,9.759531E-1,0E0,1.2480087E0,4.9079895E-2,7.4860697E0,1.2151969E1,2.268652E0,0E0,0E0,0E0,0E0,0E0,0E0,0E0,0E0,0E0,0E0,0E0,0E0,0E0,0E0],"parents":[2147483647,0,0,1,1,2,2,3,3,4,4,5,5,7,7,8,8,9,9,10,10,12,12,14,14,16,16,17,17,18,18,19,19,20,20],"right_children":[2,4,6,8,10,12,-1,14,16,18,20,-1,22,-1,24,-1,26,28,30,32,34,-1,-1,-1,-1,-1,-1,-1,-1,-1,-1,-1,-1,-1,-1],"split_conditions":[1E0,1.75E0,1.25E0,1.5E0,-2.5E-1,1.25E0,-3.439311E-2,5E-1,5E-1,-5E-1,2E0,4.221752E-2,1E0,6.033763E-2,4E0,5.7360817E-2,5E1,1.75E2,2.75E0,5E-1,0E0,-9.52082E-3,-3.269995E-2,4.5585673E-2,-2.4321373E-3,2.9834894E-2,-4.532333E-3,5.9811015E-2,1.9994963E-2,5.2927878E-2,-2.8829312E-2,5.886386E-2,-3.1706616E-2,-1.5624322E-3,-3.1533375E-2],"split_indices":[9,0,0,0,9,9,0,10,9,9,0,0,3,0,8,0,12,12,0,9,9,0,0,0,0,0,0,0,0,0,0,0,0,0,0],"split_type":[0,0,0,0,0,0,0,0,0,0,0,0,0,0,0,0,0,0,0,0,0,0,0,0,0,0,0,0,0,0,0,0,0,0,0],"sum_hessian":[3.085654E2,1.9182867E2,1.1673674E2,6.818287E1,1.236458E2,1.7199205E1,9.953754E1,5.0940414E1,1.7242455E1,3.247823E1,9.116757E1,3.7455595E0,1.3453646E1,4.7170574E1,3.7698405E0,8.068762E0,9.173692E0,2.2661867E1,9.816361E0,1.3126885E1,7.804069E1,2.1742103E0,1.1279435E1,2.368201E0,1.4016395E0,4.6259546E0,4.547737E0,2.1296421E1,1.3654469E0,5.9578304E0,3.8585308E0,5.5261774E0,7.600708E0,7.038548E0,7.100214E1],"tree_param":{"num_deleted":"0","num_feature":"14","num_nodes":"35","size_leaf_vector":"1"}},{"base_weights":[-4.4312943E-2,6.849523E-2,-3.3793505E-2,-4.8075806E-2,3.73039E-1,-5.614828E-1,1.862164E-1,6.7374516E-1,-5.321551E-1,-3.3952393E-2,-2.027818E-1,-5.417262E-1,3.2233235E-1,8.2485986E-1,-1.392621E-1,-2.6334262E-1,-3.3223316E-2,-1.9778958E-2,3.5389327E-2,-3.327805E-2,-6.169593E-3,2.524584E-2,-7.782458E-3,4.8294835E-2,1.5440533E-2,1.7024469E-2,-2.9687269E-2,9.404798E-3,-2.9126575E-2],"categories":[],"categories_nodes":[],"categories_segments":[],"categories_sizes":[],"default_left":[0,0,0,0,0,0,0,0,0,0,0,0,0,0,0,0,0,0,0,0,0,0,0,0,0,0,0,0,0],"id":13,"left_children":[1,3,-1,5,7,9,11,13,15,-1,17,19,21,23,25,27,-1,-1,-1,-1,-1,-1,-1,-1,-1,-1,-1,-1,-1],"loss_changes":[2.2437456E1,9.51669E0,0E0,2.3486404E1,2.0550068E1,2.4414291E0,1.3474159E1,7.010044E0,5.027938E-1,0E0,3.1806448E0,1.0325756E0,1.0001993E1,3.156765E0,2.3067274E0,1.2540073E0,0E0,0E0,0E0,0E0,0E0,0E0,0E0,0E0,0E0,0E0,0E0,0E0,0E0],"parents":[2147483647,0,0,1,1,3,3,4,4,5,5,6,6,7,7,8,8,10,10,11,11,12,12,13,13,14,14,15,15],"right_children":[2,4,-1,6,8,10,12,14,16,-1,18,20,22,24,26,28,-1,-1,-1,-1,-1,-1,-1,-1,-1,-1,-1,-1,-1],"split_conditions":[2E0,1E0,-3.3793505E-2,1.75E0,2E0,7.5E-1,-5E-1,1.75E0,2.25E0,-3.3952393E-2,1.5E0,3E0,2.75E0,1.75E0,1.5E0,1.25E0,-3.3223316E-2,-1.9778958E-2,3.5389327E-2,-3.327805E-2,-6.169593E-3,2.524584E-2,-7.782458E-3,4.8294835E-2,1.5440533E-2,1.7024469E-2,-2.9687269E-2,9.404798E-3,-2.9126575E-2],"split_indices":[9,9,0,0,0,9,9,9,0,0,0,0,0,0,0,9,0,0,0,0,0,0,0,0,0,0,0,0,0],"split_type":[0,0,0,0,0,0,0,0,0,0,0,0,0,0,0,0,0,0,0,0,0,0,0,0,0,0,0,0,0],"sum_hessian":[3.1328488E2,2.6656314E2,4.672173E1,1.933834E2,7.317974E1,6.0159264E1,1.3322414E2,5.51234E1,1.8056345E1,4.4636486E1,1.552278E1,2.05175E1,1.1270664E2,4.647117E1,8.652233E0,6.942275E0,1.1114069E1,1.3277141E1,2.2456393E0,1.5375176E1,5.1423235E0,8.151307E1,3.1193577E1,3.5811993E1,1.0659174E1,4.3311267E0,4.3211064E0,3.0455573E0,3.8967178E0],"tree_param":{"num_deleted":"0","num_feature":"14","num_nodes":"29","size_leaf_vector":"1"}},{"base_weights":[7.156223E-2,-2.0539787E-1,1.0692664E0,-6.145076E-1,1.581826E-1,6.828111E-1,5.591148E-2,-6.734941E-1,-3.4664094E-2,-4.720055E-1,5.646364E-1,2.0498405E-1,5.182456E-2,-6.959172E-1,-4.962861E-1,-4.1296533E-1,6.48459E-1,-6.4698815E-1,1.1509534E-1,3.558394E-1,5.8660846E-2,3.7937187E-2,-1.5531276E-1,-1.9025465E-2,-3.5267223E-2,-3.011227E-2,9.7113E-3,5.705549E-3,-3.088048E-2,-7.0566963E-4,4.5987885E-2,-3.551066E-2,-2.2526104E-2,-3.1784333E-2,5.1757097E-2,-9.025056E-3,4.66427E-2,1.6817346E-2,-2.5917947E-2],"categories":[],"categories_nodes":[],"categories_segments":[],"categories_sizes":[],"default_left":[0,0,0,0,0,0,0,0,0,0,0,0,0,0,0,0,0,0,0,0,0,0,0,0,0,0,0,0,0,0,0,0,0,0,0,0,0,0,0],"id":14,"left_children":[1,3,5,7,9,11,-1,13,15,17,19,21,-1,23,25,27,29,31,33,35,-1,-1,37,-1,-1,-1,-1,-1,-1,-1,-1,-1,-1,-1,-1,-1,-1,-1,-1],"loss_changes":[8.982589E1,3.797621E1,5.727539E-1,4.0820847E0,3.5006382E1,1.5636287E0,0E0,8.7322235E-2,3.4044113E0,5.5934944E0,1.0117229E1,1.2584347E0,0E0,1.1634827E-2,1.2669435E0,9.789473E-1,8.605155E-1,1.9600296E-1,9.765076E0,1.9715633E1,0E0,0E0,9.407064E-1,0E0,0E0,0E0,0E0,0E0,0E0,0E0,0E0,0E0,0E0,0E0,0E0,0E0,0E0,0E0,0E0],"parents":[2147483647,0,0,1,1,2,2,3,3,4,4,5,5,7,7,8,8,9,9,10,10,11,11,13,13,14,14,15,15,16,16,17,17,18,18,19,19,22,22],"right_children":[2,4,6,8,10,12,-1,14,16,18,20,22,-1,24,26,28,30,32,34,36,-1,-1,38,-1,-1,-1,-1,-1,-1,-1,-1,-1,-1,-1,-1,-1,-1,-1,-1],"split_conditions":[1.75E0,2E0,2E0,1.5E0,2.5E-1,1.5E0,5.591148E-2,1.25E0,1.5E0,3E0,2.75E0,4E0,5.182456E-2,5.8333332E1,1.75E0,3.3333332E1,6E0,2.75E0,-2.5E-1,7.5E-1,5.8660846E-2,3.7937187E-2,7.5E1,-1.9025465E-2,-3.5267223E-2,-3.011227E-2,9.7113E-3,5.705549E-3,-3.088048E-2,-7.0566963E-4,4.5987885E-2,-3.551066E-2,-2.2526104E-2,-3.1784333E-2,5.1757097E-2,-9.025056E-3,4.66427E-2,1.6817346E-2,-2.5917947E-2],"split_indices":[9,0,9,9,9,0,0,9,0,0,0,8,0,2,0,12,8,0,9,9,0,0,2,0,0,0,0,0,0,0,0,0,0,0,0,0,0,0,0],"split_type":[0,0,0,0,0,0,0,0,0,0,0,0,0,0,0,0,0,0,0,0,0,0,0,0,0,0,0,0,0,0,0,0,0,0,0,0,0,0,0],"sum_hessian":[3.2327942E2,2.5365857E2,6.9620834E1,1.1903138E2,1.346272E2,9.509556E0,6.0111282E1,1.0789399E2,1.1137388E1,5.2722336E1,8.1904854E1,4.716742E0,4.792814E0,9.317673E1,1.4717262E1,7.4224463E0,3.714942E0,4.0538128E1,1.2184208E1,6.216236E1,1.9742493E1,1.4233042E0,3.293438E0,3.9045506E0,8.927218E1,1.287016E1,1.8471024E0,2.1996021E0,5.222844E0,1.3546242E0,2.360318E0,2.869032E1,1.184781E1,6.8794603E0,5.3047476E0,3.2572807E1,2.9589556E1,1.4301637E0,1.8632743E0],"tree_param":{"num_deleted":"0","num_feature":"14","num_nodes":"39","size_leaf_vector":"1"}},{"base_weights":[-2.7552726E-2,2.9052937E-1,-5.96826E-1,5.5726595E-2,1.648383E-1,-3.561281E-1,-3.36983E-2,-7.645388E-2,5.481044E-1,7.628862E-2,-5.358293E-1,4.652951E-2,-2.26656E-1,7.744136E-1,3.7218645E-1,-2.821217E-1,2.7843258E-1,-2.3488419E-1,-6.062223E-1,8.2495436E-4,3.8233105E-2,-1.4159674E-2,5.3058E-3,4.309189E-2,-1.0054338E-2,8.922061E-3,3.2300662E-2,1.2882522E-3,-2.2016633E-2,2.2712102E-2,7.500159E-3,-2.311298E-2,1.0340037E-3,-3.301137E-2,-4.5023574E-3],"categories":[],"categories_nodes":[],"categories_segments":[],"categories_sizes":[],"default_left":[0,0,0,0,0,0,0,0,0,0,0,0,0,0,0,0,0,0,0,0,0,0,0,0,0,0,0,0,0,0,0,0,0,0,0],"id":15,"left_children":[1,3,5,-1,7,9,-1,11,13,15,17,19,21,23,25,27,29,31,33,-1,-1,-1,-1,-1,-1,-1,-1,-1,-1,-1,-1,-1,-1,-1,-1],"loss_changes":[5.6899723E1,2.0701157E1,1.85112E0,0E0,1.6330772E1,2.3296676E0,0E0,2.0233855E0,2.4257793E0,7.684562E-1,3.010435E-1,1.2973019E0,9.5616436E-1,2.6370945E0,2.0217338E0,2.0281053E-1,8.069897E-2,3.3500203E-1,3.9580774E-1,0E0,0E0,0E0,0E0,0E0,0E0,0E0,0E0,0E0,0E0,0E0,0E0,0E0,0E0,0E0,0E0],"parents":[2147483647,0,0,1,1,2,2,4,4,5,5,7,7,8,8,9,9,10,10,11,11,12,12,13,13,14,14,15,15,16,16,17,17,18,18],"right_children":[2,4,6,-1,8,10,-1,12,14,16,18,20,22,24,26,28,30,32,34,-1,-1,-1,-1,-1,-1,-1,-1,-1,-1,-1,-1,-1,-1,-1,-1],"split_conditions":[1E0,-5E-1,1.25E0,5.5726595E-2,9.1666664E1,5E0,-3.36983E-2,5E-1,2.5E-1,2E0,1.4433756E-1,5.7735026E-1,3.818813E-1,3E0,2.8867513E-1,3E0,7.5E1,6E0,8E0,8.2495436E-4,3.8233105E-2,-1.4159674E-2,5.3058E-3,4.309189E-2,-1.0054338E-2,8.922061E-3,3.2300662E-2,1.2882522E-3,-2.2016633E-2,2.2712102E-2,7.500159E-3,-2.311298E-2,1.0340037E-3,-3.301137E-2,-4.5023574E-3],"split_indices":[9,9,9,0,2,13,0,9,9,6,10,10,10,1,10,13,2,13,13,0,0,0,0,0,0,0,0,0,0,0,0,0,0,0,0],"split_type":[0,0,0,0,0,0,0,0,0,0,0,0,0,0,0,0,0,0,0,0,0,0,0,0,0,0,0,0,0,0,0,0,0,0,0],"sum_hessian":[3.1227423E2,2.006503E2,1.1162393E2,2.551466E1,1.7513564E2,2.8454552E1,8.316938E1,1.0796489E2,6.7170746E1,8.522427E0,1.9932125E1,5.974046E1,4.822443E1,2.7889826E1,3.928092E1,2.930634E0,5.591793E0,4.600549E0,1.5331576E1,5.8324455E1,1.416001E0,4.1348385E1,6.8760443E0,2.5702858E1,2.1869671E0,2.3971571E1,1.5309348E1,1.2789259E0,1.6517081E0,1.289572E0,4.302221E0,2.006546E0,2.5940032E0,1.3626791E1,1.7047856E0],"tree_param":{"num_deleted":"0","num_feature":"14","num_nodes":"35","size_leaf_vector":"1"}},{"base_weights":[-3.486408E-2,7.343116E-2,-3.325207E-2,-5.414387E-1,1.3182133E-1,-3.2924086E-2,-1.1294642E-1,-2.224118E-1,1.9097948E-1,-2.775908E-2,4.05209E-2,-3.1922888E-2,8.729782E-1,2.5480396E-1,-1.563038E-1,-4.7097798E-3,5.4325044E-2,-2.5522072E-2,1.6676879E-2,4.9304187E-2,-2.8206436E-2],"categories":[],"categories_nodes":[],"categories_segments":[],"categories_sizes":[],"default_left":[0,0,0,0,0,0,0,0,0,0,0,0,0,0,0,0,0,0,0,0,0],"id":16,"left_children":[1,3,-1,5,7,-1,9,11,13,-1,-1,-1,15,17,19,-1,-1,-1,-1,-1,-1],"loss_changes":[2.0769781E1,9.405973E0,0E0,1.0663309E0,5.035288E0,0E0,2.935477E0,1.6306248E1,4.5769796E0,0E0,0E0,0E0,2.1540232E0,1.061157E1,1.5650811E1,0E0,0E0,0E0,0E0,0E0,0E0],"parents":[2147483647,0,0,1,1,3,3,4,4,6,6,7,7,8,8,12,12,13,13,14,14],"right_children":[2,4,-1,6,8,-1,10,12,14,-1,-1,-1,16,18,20,-1,-1,-1,-1,-1,-1],"split_conditions":[2E0,-5E-1,-3.325207E-2,3E0,1.25E0,-3.2924086E-2,-7.5E-1,1.25E0,2.75E0,-2.775908E-2,4.05209E-2,-3.1922888E-2,8.333333E0,0E0,0E0,-4.7097798E-3,5.4325044E-2,-2.5522072E-2,1.6676879E-2,4.9304187E-2,-2.8206436E-2],"split_indices":[9,9,0,0,0,0,9,9,0,0,0,0,12,9,9,0,0,0,0,0,0],"split_type":[0,0,0,0,0,0,0,0,0,0,0,0,0,0,0,0,0,0,0,0,0],"sum_hessian":[3.026249E2,2.589996E2,4.36253E1,2.1744919E1,2.372547E2,1.6658026E1,5.086893E0,3.35573E1,2.036974E2,3.7091684E0,1.3777249E0,2.4622456E1,8.934845E0,1.7229832E2,3.1399065E1,1.716884E0,7.2179613E0,1.5561955E1,1.5673637E2,7.8873463E0,2.3511719E1],"tree_param":{"num_deleted":"0","num_feature":"14","num_nodes":"21","size_leaf_vector":"1"}},{"base_weights":[8.018172E-2,-2.0443547E-1,9.182638E-1,-5.696622E-1,2.3581043E-1,4.127921E-1,5.3636473E-2,-3.4418423E-2,-3.0648872E-1,-2.4521223E-1,9.402855E-1,-1.09460816E-1,4.9569435E-2,-6.537543E-1,3.2529563E-1,-6.400803E-1,1.10392585E-1,7.1620023E-1,5.5329632E-2,5.4096293E-1,-4.2491582E-1,-3.433506E-2,-1.1646332E-2,4.7710516E-2,-5.9598377E-3,-3.3396613E-2,-2.2804206E-4,-2.5686935E-2,4.616849E-2,-1.4352105E-2,5.1163442E-2,-2.5541612E-3,4.2213157E-2,-3.1929802E-2,1.9946566E-2],"categories":[],"categories_nodes":[],"categories_segments":[],"categories_sizes":[],"default_left":[0,0,0,0,0,0,0,0,0,0,0,0,0,0,0,0,0,0,0,0,0,0,0,0,0,0,0,0,0,0,0,0,0,0,0],"id":17,"left_children":[1,3,5,7,9,11,-1,-1,13,15,17,19,-1,21,23,25,27,29,-1,31,33,-1,-1,-1,-1,-1,-1,-1,-1,-1,-1,-1,-1,-1,-1],"loss_changes":[7.670562E1,3.8769E1,5.9209366E0,3.9009628E0,3.739028E1,6.364317E0,0E0,0E0,9.58467E0,9.3321295E0,8.733406E-1,2.6472259E0,0E0,2.2685051E-1,4.5360045E0,5.527506E-1,1.8516012E1,7.0333376E0,0E0,8.13081E-1,1.7500168E0,0E0,0E0,0E0,0E0,0E0,0E0,0E0,0E0,0E0,0E0,0E0,0E0,0E0,0E0],"parents":[2147483647,0,0,1,1,2,2,3,3,4,4,5,5,8,8,9,9,10,10,11,11,13,13,14,14,15,15,16,16,17,17,19,19,20,20],"right_children":[2,4,6,8,10,12,-1,-1,14,16,18,20,-1,22,24,26,28,30,-1,32,34,-1,-1,-1,-1,-1,-1,-1,-1,-1,-1,-1,-1,-1,-1],"split_conditions":[1.5E0,2.25E0,1.5E0,1E0,5E-1,2E0,5.3636473E-2,-3.4418423E-2,1.75E0,0E0,7.5E-1,5E0,4.9569435E-2,4.330127E-1,5E0,4.330127E-1,2.75E0,2.5E0,5.5329632E-2,4E0,1E2,-3.433506E-2,-1.1646332E-2,4.7710516E-2,-5.9598377E-3,-3.3396613E-2,-2.2804206E-4,-2.5686935E-2,4.616849E-2,-1.4352105E-2,5.1163442E-2,-2.5541612E-3,4.2213157E-2,-3.1929802E-2,1.9946566E-2],"split_indices":[9,0,0,9,9,9,0,0,0,9,9,13,0,10,13,10,0,0,0,13,2,0,0,0,0,0,0,0,0,0,0,0,0,0,0],"split_type":[0,0,0,0,0,0,0,0,0,0,0,0,0,0,0,0,0,0,0,0,0,0,0,0,0,0,0,0,0,0,0,0,0,0,0],"sum_hessian":[3.1978595E2,2.3928093E2,8.050503E1,1.3062273E2,1.0865821E2,1.9702656E1,6.080237E1,8.89056E1,4.171712E1,6.495691E1,4.3701305E1,1.0781696E1,8.920959E0,2.6897764E1,1.4819356E1,3.0400185E1,3.4556725E1,2.0877312E1,2.2823994E1,3.2878168E0,7.49388E0,2.43589E1,2.5388641E0,5.6617603E0,9.157596E0,2.907496E1,1.325224E0,1.9757082E1,1.47996435E1,4.907838E0,1.5969474E1,1.3954515E0,1.8923652E0,6.1290555E0,1.3648244E0],"tree_param":{"num_deleted":"0","num_feature":"14","num_nodes":"35","size_leaf_vector":"1"}},{"base_weights":[-1.6704591E-2,2.9582727E-1,-5.86569E-1,9.09974E-1,-1.7375293E-1,-1.4417478E-1,-3.333557E-2,5.8375515E-2,5.681359E-1,8.0518544E-1,-5.640931E-1,4.427048E-2,-5.7163656E-1,8.2734436E-1,-3.0960536E-2,1.0143505E0,1.6872104E-1,-2.3371303E-1,-6.446883E-1,-8.300669E-3,-3.1597074E-2,4.9524542E-2,1.9862529E-2,5.5369467E-2,3.185215E-2,4.468643E-2,-2.9133637E-2,3.2379616E-2,-2.8945481E-2,-1.1597084E-2,-3.4176785E-2],"categories":[],"categories_nodes":[],"categories_segments":[],"categories_sizes":[],"default_left":[0,0,0,0,0,0,0,0,0,0,0,0,0,0,0,0,0,0,0,0,0,0,0,0,0,0,0,0,0,0,0],"id":18,"left_children":[1,3,5,7,9,11,-1,-1,13,15,17,-1,19,21,-1,23,25,27,29,-1,-1,-1,-1,-1,-1,-1,-1,-1,-1,-1,-1],"loss_changes":[5.578082E1,5.8500626E1,3.836506E0,7.0678635E0,4.458312E1,8.5548115E0,0E0,0E0,1.2725046E1,4.2663784E0,2.0634117E0,0E0,2.2605705E-1,1.9220066E0,0E0,1.6824722E-1,5.6657596E0,5.8129835E0,9.041424E-1,0E0,0E0,0E0,0E0,0E0,0E0,0E0,0E0,0E0,0E0,0E0,0E0],"parents":[2147483647,0,0,1,1,2,2,3,3,4,4,5,5,8,8,9,9,10,10,12,12,13,13,15,15,16,16,17,17,18,18],"right_children":[2,4,6,8,10,12,-1,-1,14,16,18,-1,20,22,-1,24,26,28,30,-1,-1,-1,-1,-1,-1,-1,-1,-1,-1,-1,-1],"split_conditions":[1E0,2E0,1.25E0,5E-1,-2.5E-1,1.25E0,-3.333557E-2,5.8375515E-2,1.75E0,-5E-1,2.25E0,4.427048E-2,8.333333E0,1.5E0,-3.0960536E-2,3E0,2.75E0,2.5E-1,0E0,-8.300669E-3,-3.1597074E-2,4.9524542E-2,1.9862529E-2,5.5369467E-2,3.185215E-2,4.468643E-2,-2.9133637E-2,3.2379616E-2,-2.8945481E-2,-1.1597084E-2,-3.4176785E-2],"split_indices":[9,0,0,9,9,9,0,0,0,9,0,0,7,0,0,0,0,9,9,0,0,0,0,0,0,0,0,0,0,0,0],"split_type":[0,0,0,0,0,0,0,0,0,0,0,0,0,0,0,0,0,0,0,0,0,0,0,0,0,0,0,0,0,0,0],"sum_hessian":[3.1122372E2,2.013034E2,1.09920334E2,8.681864E1,1.14484764E2,1.7287964E1,9.263237E1,4.8137268E1,3.8681374E1,3.2333202E1,8.2151566E1,4.7575684E0,1.25303955E1,3.1998919E1,6.682453E0,2.3888767E1,8.444436E0,1.6875294E1,6.527627E1,2.1075394E0,1.0422856E1,2.2254286E1,9.744634E0,1.7611128E1,6.2776394E0,4.201271E0,4.243165E0,4.5029674E0,1.2372327E1,6.214873E0,5.9061394E1],"tree_param":{"num_deleted":"0","num_feature":"14","num_nodes":"31","size_leaf_vector":"1"}},{"base_weights":[-8.555489E-3,1.01786554E-1,-3.277318E-2,-5.122955E-1,1.518832E-1,-3.2021333E-2,-2.1621414E-1,-1.1209067E-1,2.0133208E-1,-4.203354E-1,2.0875977E-2,-3.75529E-1,6.91967E-2,2.2020017E-1,-2.859631E-2,-2.608625E-2,-7.1345926E-3,-2.29043E-2,4.5763403E-3,-1.3629583E-2,1.5386792E-2,6.498681E-3,1.9124836E-2],"categories":[],"categories_nodes":[],"categories_segments":[],"categories_sizes":[],"default_left":[0,0,0,0,0,0,0,0,0,0,0,0,0,0,0,0,0,0,0,0,0,0,0],"id":19,"left_children":[1,3,-1,5,7,-1,9,11,13,15,-1,17,19,21,-1,-1,-1,-1,-1,-1,-1,-1,-1],"loss_changes":[2.1852959E1,8.125593E0,0E0,6.1877346E-1,3.1898208E0,0E0,1.1506824E0,1.8849232E0,3.112749E0,1.00094914E-1,0E0,6.5973616E-1,2.0325751E0,2.887226E0,0E0,0E0,0E0,0E0,0E0,0E0,0E0,0E0,0E0],"parents":[2147483647,0,0,1,1,3,3,4,4,6,6,7,7,8,8,9,9,11,11,12,12,13,13],"right_children":[2,4,-1,6,8,-1,10,12,14,16,-1,18,20,22,-1,-1,-1,-1,-1,-1,-1,-1,-1],"split_conditions":[2E0,-5E-1,-3.277318E-2,-7.5E-1,8.333333E0,-3.2021333E-2,1.16666664E2,5E0,5.8333332E1,2E0,2.0875977E-2,3.818813E-1,5E-1,6E0,-2.859631E-2,-2.608625E-2,-7.1345926E-3,-2.29043E-2,4.5763403E-3,-1.3629583E-2,1.5386792E-2,6.498681E-3,1.9124836E-2],"split_indices":[9,9,0,9,7,0,12,13,7,1,0,10,9,13,0,0,0,0,0,0,0,0,0],"split_type":[0,0,0,0,0,0,0,0,0,0,0,0,0,0,0,0,0,0,0,0,0,0,0],"sum_hessian":[3.0420993E2,2.606021E2,4.360781E1,1.89604E1,2.4164172E2,1.2421783E1,6.538615E0,3.7924076E1,2.0371764E2,5.20035E0,1.3382654E0,1.5022552E1,2.2901525E1,1.9956337E2,4.154267E0,3.165323E0,2.0350268E0,1.2782343E1,2.240208E0,9.354817E0,1.3546709E1,1.2941675E2,7.014662E1],"tree_param":{"num_deleted":"0","num_feature":"14","num_nodes":"23","size_leaf_vector":"1"}},{"base_weights":[5.732455E-2,-1.7268537E-1,9.6986556E-1,-5.695706E-1,1.408952E-1,6.1329335E-1,5.081743E-2,-6.2657505E-1,-2.9367516E-3,-4.5306993E-1,5.332234E-1,1.9619235E-1,4.7053646E-2,-3.4196846E-2,-3.7159407E-1,-3.7681398E-1,6.0965884E-1,-6.369597E-1,1.404074E-1,2.0824718E-1,8.737513E-1,3.6519326E-2,-1.5475859E-1,-2.6102016E-2,2.3475384E-2,5.839824E-3,-2.9478027E-2,-1.4413918E-3,4.3799724E-2,-3.458921E-2,-2.4350945E-2,-3.1139553E-2,4.968213E-2,-2.9884208E-2,3.7351165E-2,2.5323648E-2,5.2372105E-2,1.5963286E-2,-2.5403649E-2],"categories":[],"categories_nodes":[],"categories_segments":[],"categories_sizes":[],"default_left":[0,0,0,0,0,0,0,0,0,0,0,0,0,0,0,0,0,0,0,0,0,0,0,0,0,0,0,0,0,0,0,0,0,0,0,0,0,0,0],"id":20,"left_children":[1,3,5,7,9,11,-1,13,15,17,19,21,-1,-1,23,25,27,29,31,33,35,-1,37,-1,-1,-1,-1,-1,-1,-1,-1,-1,-1,-1,-1,-1,-1,-1,-1],"loss_changes":[6.889757E1,3.2734985E1,4.7178268E-1,3.7452316E0,3.4584187E1,1.2018735E0,0E0,1.2874184E0,2.8884625E0,6.546193E0,9.69047E0,1.1865292E0,0E0,0E0,2.9715495E0,8.907796E-1,8.3837414E-1,3.5873413E-2,1.0266016E1,2.0837688E1,2.228569E0,0E0,8.791716E-1,0E0,0E0,0E0,0E0,0E0,0E0,0E0,0E0,0E0,0E0,0E0,0E0,0E0,0E0,0E0,0E0],"parents":[2147483647,0,0,1,1,2,2,3,3,4,4,5,5,7,7,8,8,9,9,10,10,11,11,14,14,15,15,16,16,17,17,18,18,19,19,20,20,22,22],"right_children":[2,4,6,8,10,12,-1,14,16,18,20,22,-1,-1,24,26,28,30,32,34,36,-1,38,-1,-1,-1,-1,-1,-1,-1,-1,-1,-1,-1,-1,-1,-1,-1,-1],"split_conditions":[1.75E0,2E0,2E0,1.5E0,2.5E-1,1.5E0,5.081743E-2,1.75E0,1.5E0,3E0,2.5E0,2E0,4.7053646E-2,-3.4196846E-2,1.25E0,3.3333332E1,3E0,2.75E0,-2.5E-1,7.5E-1,5E-1,3.6519326E-2,7.5E1,-2.6102016E-2,2.3475384E-2,5.839824E-3,-2.9478027E-2,-1.4413918E-3,4.3799724E-2,-3.458921E-2,-2.4350945E-2,-3.1139553E-2,4.968213E-2,-2.9884208E-2,3.7351165E-2,2.5323648E-2,5.2372105E-2,1.5963286E-2,-2.5403649E-2],"split_indices":[9,0,9,9,9,0,0,0,0,0,0,1,0,0,9,12,1,0,9,9,9,0,2,0,0,0,0,0,0,0,0,0,0,0,0,0,0,0,0],"split_type":[0,0,0,0,0,0,0,0,0,0,0,0,0,0,0,0,0,0,0,0,0,0,0,0,0,0,0,0,0,0,0,0,0,0,0,0,0,0,0],"sum_hessian":[3.264522E2,2.613808E2,6.5071396E1,1.15006165E2,1.4637463E2,9.14141E0,5.592999E1,1.0439777E2,1.0608393E1,5.816338E1,8.821126E1,4.7260456E0,4.4153647E0,8.3851746E1,2.0546032E1,6.826783E0,3.7816093E0,4.434863E1,1.3814752E1,4.5960907E1,4.225035E1,1.4451581E0,3.2808871E0,1.7750391E1,2.7956405E0,2.1919858E0,4.6347976E0,1.3756126E0,2.4059968E0,2.982843E1,1.45202E1,7.4346857E0,6.380066E0,1.8371082E1,2.7589825E1,1.4822768E1,2.7427582E1,1.4422549E0,1.8386323E0],"tree_param":{"num_deleted":"0","num_feature":"14","num_nodes":"39","size_leaf_vector":"1"}},{"base_weights":[-2.39332E-2,2.823658E-1,-5.7871485E-1,1.003885E0,-1.1154873E-1,-1.4643611E-1,-3.2939274E-2,1.9453747E-2,5.1227774E-2,7.9903406E-1,-4.639046E-1,5.0132513E-2,-5.704425E-1,9.750318E-1,2.974617E-1,-4.8026096E-2,-6.4897287E-1,-7.966862E-3,-3.1425938E-2,5.2991576E-2,3.0371835E-2,4.6496145E-2,-2.8874574E-2,3.2019068E-2,-3.28585E-2,-1.5162117E-2,-3.370885E-2],"categories":[],"categories_nodes":[],"categories_segments":[],"categories_sizes":[],"default_left":[0,0,0,0,0,0,0,0,0,0,0,0,0,0,0,0,0,0,0,0,0,0,0,0,0,0,0],"id":21,"left_children":[1,3,5,7,9,11,-1,-1,-1,13,15,-1,17,19,21,23,25,-1,-1,-1,-1,-1,-1,-1,-1,-1,-1],"loss_changes":[5.2496964E1,5.6698013E1,3.70673E0,4.961853E-1,4.197983E1,9.564936E0,0E0,0E0,0E0,2.9363422E0,7.2140656E0,0E0,2.3697662E-1,1.8590164E-1,6.586796E0,1.3030376E1,3.6253166E-1,0E0,0E0,0E0,0E0,0E0,0E0,0E0,0E0,0E0,0E0],"parents":[2147483647,0,0,1,1,2,2,3,3,4,4,5,5,9,9,10,10,12,12,13,13,14,14,15,15,16,16],"right_children":[2,4,6,8,10,12,-1,-1,-1,14,16,-1,18,20,22,24,26,-1,-1,-1,-1,-1,-1,-1,-1,-1,-1],"split_conditions":[1E0,1.75E0,1.25E0,1E0,-2.5E-1,1.25E0,-3.2939274E-2,1.9453747E-2,5.1227774E-2,-5E-1,2.25E0,5.0132513E-2,8.333333E0,3E0,2.75E0,5E-1,0E0,-7.966862E-3,-3.1425938E-2,5.2991576E-2,3.0371835E-2,4.6496145E-2,-2.8874574E-2,3.2019068E-2,-3.28585E-2,-1.5162117E-2,-3.370885E-2],"split_indices":[9,0,0,5,9,9,0,0,0,9,0,0,7,0,0,9,9,0,0,0,0,0,0,0,0,0,0],"split_type":[0,0,0,0,0,0,0,0,0,0,0,0,0,0,0,0,0,0,0,0,0,0,0,0,0,0,0],"sum_hessian":[3.0697296E2,1.9809456E2,1.0887841E2,6.941009E1,1.2868446E2,1.7457747E1,9.142066E1,2.902497E0,6.650758E1,3.5548878E1,9.31356E1,4.3376665E0,1.3120079E1,2.5616352E1,9.932524E0,2.9070024E1,6.406557E1,2.087421E0,1.1032659E1,1.9284506E1,6.331847E0,5.7286987E0,4.2038245E0,1.3623036E1,1.5446988E1,5.2385626E0,5.8827007E1],"tree_param":{"num_deleted":"0","num_feature":"14","num_nodes":"27","size_leaf_vector":"1"}},{"base_weights":[-3.5997517E-2,7.439497E-2,-5.9953666E-1,-4.470151E-2,3.929842E-1,-3.0020183E-1,-3.2304134E-2,-5.600168E-1,2.0752393E-2,2.324526E-1,8.4150225E-1,-3.6799908E-2,-2.7634252E-2,-3.169906E-2,-3.6129013E-1,3.5877425E-2,-2.7937502E-2,-1.5629748E-1,4.3805465E-1,9.3186754E-1,3.925806E-1,-2.267061E-2,2.8198203E-1,-2.7959416E-2,3.2345764E-3,-4.518782E-3,5.651799E-3,2.2928061E-2,-1.4402582E-2,-8.003908E-3,2.9610187E-2,2.3218896E-2,5.0145905E-2,1.5247728E-3,3.6307182E-2,1.6937811E-3,2.0104004E-2],"categories":[],"categories_nodes":[],"categories_segments":[],"categories_sizes":[],"default_left":[0,0,0,0,0,0,0,0,0,0,0,0,0,0,0,0,0,0,0,0,0,0,0,0,0,0,0,0,0,0,0,0,0,0,0,0,0],"id":22,"left_children":[1,3,5,7,9,11,-1,13,15,17,19,21,-1,-1,23,25,-1,27,29,31,33,-1,35,-1,-1,-1,-1,-1,-1,-1,-1,-1,-1,-1,-1,-1,-1],"loss_changes":[1.928096E1,9.861966E0,5.132885E-1,6.411864E0,4.8949327E0,5.581804E-1,0E0,8.5813046E-2,1.5042346E0,4.340389E0,3.746519E-1,8.355567E-1,0E0,0E0,7.219783E-1,1.6269537E0,0E0,1.6895779E0,3.3422694E0,1.4789581E-2,5.559711E-1,0E0,9.470287E-2,0E0,0E0,0E0,0E0,0E0,0E0,0E0,0E0,0E0,0E0,0E0,0E0,0E0,0E0],"parents":[2147483647,0,0,1,1,2,2,3,3,4,4,5,5,7,7,8,8,9,9,10,10,11,11,14,14,15,15,17,17,18,18,19,19,20,20,22,22],"right_children":[2,4,6,8,10,12,-1,14,16,18,20,22,-1,-1,24,26,-1,28,30,32,34,-1,36,-1,-1,-1,-1,-1,-1,-1,-1,-1,-1,-1,-1,-1,-1],"split_conditions":[1.75E0,1E0,2E0,-5E-1,7E0,3E0,-3.2304134E-2,-7.5E-1,1.75E2,7.5E1,1E2,2E0,-2.7634252E-2,-3.169906E-2,2E0,2.5E1,-2.7937502E-2,2E0,1.4433756E-1,6.6666664E1,2.5E-1,-2.267061E-2,4.1666668E1,-2.7959416E-2,3.2345764E-3,-4.518782E-3,5.651799E-3,2.2928061E-2,-1.4402582E-2,-8.003908E-3,2.9610187E-2,2.3218896E-2,5.0145905E-2,1.5247728E-3,3.6307182E-2,1.6937811E-3,2.0104004E-2],"split_indices":[9,9,9,9,13,1,0,9,12,2,2,1,0,0,1,12,0,6,10,2,10,0,12,0,0,0,0,0,0,0,0,0,0,0,0,0,0],"split_type":[0,0,0,0,0,0,0,0,0,0,0,0,0,0,0,0,0,0,0,0,0,0,0,0,0,0,0,0,0,0,0,0,0,0,0,0,0],"sum_hessian":[3.0821408E2,2.584533E2,4.97608E1,1.8875262E2,6.970067E1,7.6989393E0,4.206186E1,2.0421247E1,1.6833138E2,5.244725E1,1.7253422E1,4.328747E0,3.3701928E0,1.3286071E1,7.135177E0,1.649639E2,3.3674738E0,1.822584E1,3.422141E1,1.3466836E1,3.7865863E0,1.693372E0,2.6353745E0,4.6583457E0,2.4768317E0,6.2509506E1,1.0245439E2,2.778579E0,1.544726E1,7.004382E0,2.7217028E1,2.7709255E0,1.069591E1,2.3390036E0,1.4475826E0,1.2777601E0,1.3576145E0],"tree_param":{"num_deleted":"0","num_feature":"14","num_nodes":"37","size_leaf_vector":"1"}},{"base_weights":[5.2598964E-2,-1.8116976E-1,9.323838E-1,-5.758374E-1,1.4539762E-1,6.1765945E-1,4.8730608E-2,-6.256748E-1,-3.2141935E-2,-2.945933E-1,6.7499E-1,1.899833E-1,4.63187E-2,-3.3644017E-2,-4.3002298E-1,4.205318E-1,-4.4176143E-1,-6.0860807E-1,1.1221513E-1,4.0191215E-1,5.184417E-2,3.562782E-2,-1.547724E-1,-2.6616663E-2,1.6833158E-2,-5.98958E-3,3.5119787E-2,5.7935973E-5,-2.8278595E-2,-3.3664253E-2,2.0223152E-2,-2.8289864E-2,4.386575E-2,-2.4934193E-2,3.8248714E-2,1.5557319E-2,-2.5172342E-2],"categories":[],"categories_nodes":[],"categories_segments":[],"categories_sizes":[],"default_left":[0,0,0,0,0,0,0,0,0,0,0,0,0,0,0,0,0,0,0,0,0,0,0,0,0,0,0,0,0,0,0,0,0,0,0,0,0],"id":23,"left_children":[1,3,5,7,9,11,-1,13,15,17,19,21,-1,-1,23,25,27,29,31,33,-1,-1,35,-1,-1,-1,-1,-1,-1,-1,-1,-1,-1,-1,-1,-1,-1],"loss_changes":[6.5808754E1,3.2690964E1,2.906494E-1,3.0893135E0,3.264381E1,1.233552E0,0E0,6.810074E-1,2.1679163E0,9.872576E0,5.857645E0,1.1432579E0,0E0,0E0,1.998446E0,9.3553543E-1,3.3513784E-1,3.1206112E0,1.8278515E1,1.2746952E1,0E0,0E0,8.513188E-1,0E0,0E0,0E0,0E0,0E0,0E0,0E0,0E0,0E0,0E0,0E0,0E0,0E0,0E0],"parents":[2147483647,0,0,1,1,2,2,3,3,4,4,5,5,7,7,8,8,9,9,10,10,11,11,14,14,15,15,16,16,17,17,18,18,19,19,22,22],"right_children":[2,4,6,8,10,12,-1,14,16,18,20,22,-1,-1,24,26,28,30,32,34,-1,-1,36,-1,-1,-1,-1,-1,-1,-1,-1,-1,-1,-1,-1,-1,-1],"split_conditions":[1.75E0,2E0,2E0,1.5E0,5E-1,1.5E0,4.8730608E-2,1.75E0,7E0,2.75E0,2.5E0,4E0,4.63187E-2,-3.3644017E-2,1.25E0,6E0,2.5E1,1.6666667E2,0E0,7.5E-1,5.184417E-2,3.562782E-2,7.5E1,-2.6616663E-2,1.6833158E-2,-5.98958E-3,3.5119787E-2,5.7935973E-5,-2.8278595E-2,-3.3664253E-2,2.0223152E-2,-2.8289864E-2,4.386575E-2,-2.4934193E-2,3.8248714E-2,1.5557319E-2,-2.5172342E-2],"split_indices":[9,0,9,9,9,0,0,0,13,0,0,8,0,0,9,8,12,12,9,9,0,0,2,0,0,0,0,0,0,0,0,0,0,0,0,0,0],"split_type":[0,0,0,0,0,0,0,0,0,0,0,0,0,0,0,0,0,0,0,0,0,0,0,0,0,0,0,0,0,0,0,0,0,0,0,0,0],"sum_hessian":[3.181572E2,2.519937E2,6.616349E1,1.13754395E2,1.382393E2,9.675976E0,5.648751E1,1.0406462E2,9.689778E0,7.574953E1,6.248977E1,4.733645E0,4.942331E0,8.1871956E1,2.2192663E1,4.590329E0,5.0994487E0,4.2470535E1,3.3278996E1,3.6818104E1,2.5671665E1,1.4575216E0,3.2761235E0,1.984952E1,2.3431447E0,1.7707894E0,2.8195398E0,1.330468E0,3.7689807E0,4.0237103E1,2.233435E0,1.7781746E1,1.5497248E1,1.04709E1,2.6347206E1,1.4483653E0,1.8277583E0],"tree_param":{"num_deleted":"0","num_feature":"14","num_nodes":"37","size_leaf_vector":"1"}},{"base_weights":[-2.397131E-2,2.8839916E-1,-5.8020675E-1,8.463778E-1,-1.6957855E-1,-1.918115E-1,-3.2519948E-2,5.404007E-2,5.4005194E-1,7.632604E-1,-5.5378294E-1,3.944355E-2,-5.594779E-1,7.822775E-1,-3.0491477E-2,9.199646E-1,2.3466259E-1,-2.4507318E-1,-6.2515503E-1,-3.1149108E-3,-3.1066416E-2,4.6307445E-2,1.758141E-2,5.043114E-2,2.898923E-2,4.128469E-2,-2.7279293E-2,2.6756406E-2,-2.7981037E-2,-9.420719E-3,-3.3303898E-2],"categories":[],"categories_nodes":[],"categories_segments":[],"categories_sizes":[],"default_left":[0,0,0,0,0,0,0,0,0,0,0,0,0,0,0,0,0,0,0,0,0,0,0,0,0,0,0,0,0,0,0],"id":24,"left_children":[1,3,5,7,9,11,-1,-1,13,15,17,-1,19,21,-1,23,25,27,29,-1,-1,-1,-1,-1,-1,-1,-1,-1,-1,-1,-1],"loss_changes":[5.296142E1,5.0036896E1,2.863266E0,5.748562E0,3.9153202E1,7.001546E0,0E0,0E0,1.1681348E1,2.4302235E0,1.5459938E0,0E0,3.8621092E-1,1.7601662E0,0E0,1.4803123E-1,4.4380965E0,4.2570677E0,9.8249435E-1,0E0,0E0,0E0,0E0,0E0,0E0,0E0,0E0,0E0,0E0,0E0,0E0],"parents":[2147483647,0,0,1,1,2,2,3,3,4,4,5,5,8,8,9,9,10,10,12,12,13,13,15,15,16,16,17,17,18,18],"right_children":[2,4,6,8,10,12,-1,-1,14,16,18,-1,20,22,-1,24,26,28,30,-1,-1,-1,-1,-1,-1,-1,-1,-1,-1,-1,-1],"split_conditions":[1E0,2E0,1.25E0,5E-1,-2.5E-1,1.25E0,-3.2519948E-2,5.404007E-2,1.75E0,-5E-1,2.25E0,3.944355E-2,1E0,1.5E0,-3.0491477E-2,3E0,2.75E0,2.5E-1,0E0,-3.1149108E-3,-3.1066416E-2,4.6307445E-2,1.758141E-2,5.043114E-2,2.898923E-2,4.128469E-2,-2.7279293E-2,2.6756406E-2,-2.7981037E-2,-9.420719E-3,-3.3303898E-2],"split_indices":[9,0,0,9,9,9,0,0,0,9,0,0,1,0,0,0,0,9,9,0,0,0,0,0,0,0,0,0,0,0,0],"split_type":[0,0,0,0,0,0,0,0,0,0,0,0,0,0,0,0,0,0,0,0,0,0,0,0,0,0,0,0,0,0,0],"sum_hessian":[3.028482E2,1.9424544E2,1.0860276E2,8.71806E1,1.07064835E2,1.7194246E1,9.1408516E1,4.795418E1,3.9226418E1,3.094486E1,7.611997E1,4.376124E0,1.2818122E1,3.2665115E1,6.5613036E0,2.3297783E1,7.6470766E0,1.5126449E1,6.0993526E1,1.64026E0,1.1177861E1,2.3622663E1,9.04245E0,1.6922466E1,6.375317E0,4.3179917E0,3.3290846E0,4.144701E0,1.0981747E1,5.705627E0,5.52879E1],"tree_param":{"num_deleted":"0","num_feature":"14","num_nodes":"31","size_leaf_vector":"1"}},{"base_weights":[-2.6090689E-2,7.263272E-2,-3.1878956E-2,-5.033135E-1,1.2071473E-1,-2.8957142E-2,-7.2868824E-2,3.4683034E-2,3.0705994E-1,2.1567896E-2,-2.231551E-2,4.957384E-2,-2.7456975E-2,-1.8622634E-1,4.3930867E-1,4.875423E-3,-8.197104E-3,-1.6496591E-2,5.091078E-3,3.743342E-3,3.098586E-2],"categories":[],"categories_nodes":[],"categories_segments":[],"categories_sizes":[],"default_left":[0,0,0,0,0,0,0,0,0,0,0,0,0,0,0,0,0,0,0,0,0],"id":25,"left_children":[1,3,-1,5,7,-1,9,11,13,-1,-1,15,-1,17,19,-1,-1,-1,-1,-1,-1],"loss_changes":[1.8651592E1,7.4340177E0,0E0,6.337328E-1,3.9418573E0,0E0,9.9196994E-1,1.503391E0,5.15363E0,0E0,0E0,1.720016E0,0E0,7.430443E-1,4.004114E0,0E0,0E0,0E0,0E0,0E0,0E0],"parents":[2147483647,0,0,1,1,3,3,4,4,6,6,7,7,8,8,11,11,13,13,14,14],"right_children":[2,4,-1,6,8,-1,10,12,14,-1,-1,16,-1,18,20,-1,-1,-1,-1,-1,-1],"split_conditions":[2E0,-5E-1,-3.1878956E-2,1.3333333E2,1E0,-2.8957142E-2,2E0,1.75E2,1.4433756E-1,2.1567896E-2,-2.231551E-2,1E2,-2.7456975E-2,6E0,5E0,4.875423E-3,-8.197104E-3,-1.6496591E-2,5.091078E-3,3.743342E-3,3.098586E-2],"split_indices":[9,9,0,12,9,0,6,12,10,0,0,2,0,13,13,0,0,0,0,0,0],"split_type":[0,0,0,0,0,0,0,0,0,0,0,0,0,0,0,0,0,0,0,0,0],"sum_hessian":[3.0719666E2,2.6525333E2,4.1943325E1,1.9708536E1,2.455448E2,1.6462894E1,3.2456405E0,1.6879964E2,7.674515E1,1.3150072E0,1.9306333E0,1.654937E2,3.305946E0,1.6138937E1,6.0606213E1,1.3559561E2,2.9898083E1,1.0670218E1,5.468719E0,2.0536192E1,4.0070023E1],"tree_param":{"num_deleted":"0","num_feature":"14","num_nodes":"21","size_leaf_vector":"1"}},{"base_weights":[4.6047635E-2,-1.7533469E-1,8.9280975E-1,-4.9400103E-1,2.2340545E-1,5.4186124E-1,4.6856966E-2,-6.1924464E-1,-4.3651424E-2,-4.2377612E-1,6.9431543E-1,-8.939315E-3,7.3519E-1,-3.307989E-2,-4.151675E-1,-4.2383164E-1,8.433122E-1,-6.0384214E-1,9.194543E-2,4.7842535E-1,5.1939946E-2,1.4650551E-2,4.373318E-2,-2.7833445E-2,1.7723551E-2,-2.772933E-2,2.3695498E-3,4.879971E-2,1.9564407E-2,-3.359136E-2,-2.2149218E-2,-3.0233515E-2,4.6149436E-2,-2.269721E-2,3.678992E-2],"categories":[],"categories_nodes":[],"categories_segments":[],"categories_sizes":[],"default_left":[0,0,0,0,0,0,0,0,0,0,0,0,0,0,0,0,0,0,0,0,0,0,0,0,0,0,0,0,0,0,0,0,0,0,0],"id":26,"left_children":[1,3,5,7,9,11,-1,13,15,17,19,-1,21,-1,23,25,27,29,31,33,-1,-1,-1,-1,-1,-1,-1,-1,-1,-1,-1,-1,-1,-1,-1],"loss_changes":[5.932661E1,3.201131E1,5.1252365E-1,7.861126E0,3.4491062E1,1.4864814E0,0E0,6.7043686E-1,1.0981573E1,4.5018215E0,4.3614674E0,0E0,2.2872257E-1,0E0,2.5363452E0,1.4261127E0,2.0510483E-1,9.193802E-2,8.233899E0,1.04158E1,0E0,0E0,0E0,0E0,0E0,0E0,0E0,0E0,0E0,0E0,0E0,0E0,0E0,0E0,0E0],"parents":[2147483647,0,0,1,1,2,2,3,3,4,4,5,5,7,7,8,8,9,9,10,10,12,12,14,14,15,15,16,16,17,17,18,18,19,19],"right_children":[2,4,6,8,10,12,-1,14,16,18,20,-1,22,-1,24,26,28,30,32,34,-1,-1,-1,-1,-1,-1,-1,-1,-1,-1,-1,-1,-1,-1,-1],"split_conditions":[1.75E0,2.25E0,2E0,1.25E0,2.5E-1,1.25E0,4.6856966E-2,1E0,1.75E0,3E0,7.5E-1,-8.939315E-3,1.5E0,-3.307989E-2,2E0,1.5E0,2.8867513E-1,2.75E0,-2.5E-1,2.5E0,5.1939946E-2,1.4650551E-2,4.373318E-2,-2.7833445E-2,1.7723551E-2,-2.772933E-2,2.3695498E-3,4.879971E-2,1.9564407E-2,-3.359136E-2,-2.2149218E-2,-3.0233515E-2,4.6149436E-2,-2.269721E-2,3.678992E-2],"split_indices":[9,0,9,9,9,0,0,9,0,0,9,0,0,0,0,0,10,0,9,0,0,0,0,0,0,0,0,0,0,0,0,0,0,0,0],"split_type":[0,0,0,0,0,0,0,0,0,0,0,0,0,0,0,0,0,0,0,0,0,0,0,0,0,0,0,0,0,0,0,0,0,0,0],"sum_hessian":[3.1464413E2,2.5005997E2,6.4584175E1,1.3885251E2,1.11207466E2,8.725962E0,5.585821E1,1.0834609E2,3.0506409E1,4.6879738E1,6.432773E1,1.861669E0,6.864292E0,8.786844E1,2.047766E1,2.1719088E1,8.787322E0,3.462087E1,1.2258869E1,4.101326E1,2.3314466E1,2.389523E0,4.474769E0,1.7531189E1,2.946471E0,1.6863022E1,4.8560643E0,5.89717E0,2.890152E0,2.21028E1,1.2518069E1,6.8169823E0,5.4418874E0,8.70704E0,3.230622E1],"tree_param":{"num_deleted":"0","num_feature":"14","num_nodes":"35","size_leaf_vector":"1"}},{"base_weights":[-3.700536E-2,3.2814613E-1,-2.7667272E-1,5.8011675E-1,7.378932E-2,-4.0174997E-1,5.1081598E-2,6.5102696E-1,-3.5234854E-1,1.4078543E-1,-2.604432E-1,-1.4186557E-1,-4.7715756E-1,1.5058294E-1,-3.119155E-1,3.887057E-2,4.661143E-1,-7.45039E-3,-2.1985171E-2,4.1993946E-1,8.138657E-3,-4.4522867E-1,1.0081308E-1,1.3857444E-1,-3.1722346E-1,-2.7948532E-1,-5.386761E-1,7.6763935E-2,5.31533E-1,-1.04570016E-1,-2.769577E-2,4.192225E-2,1.4132745E-2,3.3341806E-2,9.211551E-3,-1.0879614E-2,5.071272E-3,-2.6214933E-2,-1.0128997E-2,1.9429034E-2,-7.854368E-3,2.5350912E-2,-2.053336E-3,1.1758189E-2,-2.3252307E-2,8.944816E-3,-2.2900486E-2,-1.6964858E-2,-2.9032726E-2,1.5952481E-2,-2.2723274E-3,2.8095297E-3,3.1581283E-2,1.9143317E-2,-1.9529596E-2],"categories":[],"categories_nodes":[],"categories_segments":[],"categories_sizes":[],"default_left":[0,0,0,0,0,0,0,0,0,0,0,0,0,0,0,0,0,0,0,0,0,0,0,0,0,0,0,0,0,0,0,0,0,0,0,0,0,0,0,0,0,0,0,0,0,0,0,0,0,0,0,0,0,0,0],"id":27,"left_children":[1,3,5,7,9,11,13,15,17,19,21,23,25,27,29,-1,31,-1,-1,33,35,37,39,41,43,45,47,49,51,53,-1,-1,-1,-1,-1,-1,-1,-1,-1,-1,-1,-1,-1,-1,-1,-1,-1,-1,-1,-1,-1,-1,-1,-1,-1],"loss_changes":[2.6339035E1,7.6037064E0,7.465991E0,4.182749E0,1.391818E0,2.5106773E0,1.8909334E0,9.443836E-1,2.1061301E-2,1.8873708E0,7.428835E-1,1.5690905E0,1.084404E0,1.10497E0,5.095376E-1,0E0,1.4842591E0,0E0,0E0,8.3319736E-1,7.7244735E-1,3.0054212E-2,3.8416192E-1,8.566045E-1,1.6922837E0,2.2244859E0,4.421978E-1,1.0596987E0,2.7114213E-1,1.1705441E0,0E0,0E0,0E0,0E0,0E0,0E0,0E0,0E0,0E0,0E0,0E0,0E0,0E0,0E0,0E0,0E0,0E0,0E0,0E0,0E0,0E0,0E0,0E0,0E0,0E0],"parents":[2147483647,0,0,1,1,2,2,3,3,4,4,5,5,6,6,7,7,8,8,9,9,10,10,11,11,12,12,13,13,14,14,16,16,19,19,20,20,21,21,22,22,23,23,24,24,25,25,26,26,27,27,28,28,29,29],"right_children":[2,4,6,8,10,12,14,16,18,20,22,24,26,28,30,-1,32,-1,-1,34,36,38,40,42,44,46,48,50,52,54,-1,-1,-1,-1,-1,-1,-1,-1,-1,-1,-1,-1,-1,-1,-1,-1,-1,-1,-1,-1,-1,-1,-1,-1,-1],"split_conditions":[1.75E0,2E0,9.1666664E1,1.16666664E2,4E0,2.5E-1,2.5E1,3E0,1.3333333E2,1.25E0,8E0,6.6666664E1,1E0,7E0,5E-1,3.887057E-2,1.25E0,-7.45039E-3,-2.1985171E-2,5E0,4E0,1.25E0,1.25E0,1E2,1E0,2.25E0,4.1666668E1,2.5E-1,2.5E-1,1E0,-2.769577E-2,4.192225E-2,1.4132745E-2,3.3341806E-2,9.211551E-3,-1.0879614E-2,5.071272E-3,-2.6214933E-2,-1.0128997E-2,1.9429034E-2,-7.854368E-3,2.5350912E-2,-2.053336E-3,1.1758189E-2,-2.3252307E-2,8.944816E-3,-2.2900486E-2,-1.6964858E-2,-2.9032726E-2,1.5952481E-2,-2.2723274E-3,2.8095297E-3,3.1581283E-2,1.9143317E-2,-1.9529596E-2],"split_indices":[0,1,2,12,6,11,12,6,12,0,13,2,1,13,11,0,0,0,0,13,13,0,0,12,1,0,12,11,11,1,0,0,0,0,0,0,0,0,0,0,0,0,0,0,0,0,0,0,0,0,0,0,0,0,0],"split_type":[0,0,0,0,0,0,0,0,0,0,0,0,0,0,0,0,0,0,0,0,0,0,0,0,0,0,0,0,0,0,0,0,0,0,0,0,0,0,0,0,0,0,0,0,0,0,0,0,0,0,0,0,0,0,0],"sum_hessian":[2.9892886E2,1.18308174E2,1.806207E2,5.8789494E1,5.951868E1,1.305678E2,5.0052902E1,5.4915234E1,3.874262E0,5.0062542E1,9.456138E0,3.0012875E1,1.0055492E2,3.974386E1,1.0309044E1,3.0716713E1,2.4198519E1,1.9773202E0,1.8969418E0,1.5428193E1,3.463435E1,6.1023116E0,3.353826E0,1.1627473E1,1.8385403E1,2.5182196E1,7.537273E1,3.429903E1,5.4448247E0,6.323326E0,3.9857178E0,6.809156E0,1.7389362E1,6.6419272E0,8.786266E0,9.738085E0,2.4896265E1,3.7270696E0,2.3752422E0,1.3456405E0,2.0081856E0,3.2137277E0,8.413745E0,3.7566423E0,1.4628759E1,7.0579715E0,1.8124224E1,1.4689015E1,6.068371E1,1.0959957E1,2.3339075E1,1.2186782E0,4.2261467E0,2.2131321E0,4.1101937E0],"tree_param":{"num_deleted":"0","num_feature":"14","num_nodes":"55","size_leaf_vector":"1"}},{"base_weights":[-2.524505E-2,6.537839E-2,-3.1419992E-2,-5.388917E-1,1.1497255E-1,-5.791936E-1,2.0842194E-3,-2.7023256E-1,1.7865384E-1,-3.1001702E-2,-3.1093663E-1,-3.317532E-2,7.589286E-1,2.348928E-1,-1.8550031E-1,-2.356539E-2,3.5389855E-3,-5.290748E-3,4.743362E-2,-1.6896432E-2,1.4620565E-2,4.7728E-2,-2.8826822E-2],"categories":[],"categories_nodes":[],"categories_segments":[],"categories_sizes":[],"default_left":[0,0,0,0,0,0,0,0,0,0,0,0,0,0,0,0,0,0,0,0,0,0,0],"id":28,"left_children":[1,3,-1,5,7,9,-1,11,13,-1,15,-1,17,19,21,-1,-1,-1,-1,-1,-1,-1,-1],"loss_changes":[1.6586716E1,7.975592E0,0E0,4.9690008E-1,6.05484E0,1.4933109E-2,0E0,1.4724336E1,4.359188E0,0E0,3.095148E-1,0E0,1.7708259E0,6.127537E0,1.3366864E1,0E0,0E0,0E0,0E0,0E0,0E0,0E0,0E0],"parents":[2147483647,0,0,1,1,3,3,4,4,5,5,7,7,8,8,10,10,12,12,13,13,14,14],"right_children":[2,4,-1,6,8,10,-1,12,14,-1,16,-1,18,20,22,-1,-1,-1,-1,-1,-1,-1,-1],"split_conditions":[2E0,-5E-1,-3.1419992E-2,1.75E2,1.25E0,3E0,2.0842194E-3,1.25E0,2.75E0,-3.1001702E-2,3E0,-3.317532E-2,8.333333E0,0E0,0E0,-2.356539E-2,3.5389855E-3,-5.290748E-3,4.743362E-2,-1.6896432E-2,1.4620565E-2,4.7728E-2,-2.8826822E-2],"split_indices":[9,9,0,12,0,0,0,9,0,0,6,0,12,9,9,0,0,0,0,0,0,0,0],"split_type":[0,0,0,0,0,0,0,0,0,0,0,0,0,0,0,0,0,0,0,0,0,0,0],"sum_hessian":[3.0170114E2,2.6306714E2,3.8633984E1,1.9204744E1,2.438624E2,1.7960371E1,1.2443745E0,3.4135406E1,2.0972699E2,1.4449223E1,3.5111482E0,2.4954735E1,9.180672E0,1.819778E2,2.774919E1,2.3071392E0,1.204009E0,1.7315559E0,7.4491153E0,1.6160616E1,1.6581718E2,6.7189837E0,2.1030205E1],"tree_param":{"num_deleted":"0","num_feature":"14","num_nodes":"23","size_leaf_vector":"1"}},{"base_weights":[4.189029E-2,-1.850783E-1,8.728695E-1,-5.3591144E-1,1.1483544E-1,5.8511037E-1,4.5172863E-2,-5.9873754E-1,6.877166E-2,-4.473749E-1,4.815427E-1,1.6160926E-1,4.2530768E-2,-3.266954E-2,-3.8584852E-1,-3.4421924E-1,6.2107915E-1,-6.0709876E-1,1.0551971E-1,1.8320428E-1,7.778072E-1,2.1403512E-2,-8.541146E-3,-2.5979722E-2,2.1676233E-2,-7.5476863E-3,-2.5495661E-2,-1.5754957E-3,4.2845953E-2,-3.3337396E-2,-2.1505019E-2,-2.9715065E-2,4.4103187E-2,-2.8163001E-2,3.2874282E-2,2.277456E-2,4.67018E-2],"categories":[],"categories_nodes":[],"categories_segments":[],"categories_sizes":[],"default_left":[0,0,0,0,0,0,0,0,0,0,0,0,0,0,0,0,0,0,0,0,0,0,0,0,0,0,0,0,0,0,0,0,0,0,0,0,0],"id":29,"left_children":[1,3,5,7,9,11,-1,13,15,17,19,21,-1,-1,23,25,27,29,31,33,35,-1,-1,-1,-1,-1,-1,-1,-1,-1,-1,-1,-1,-1,-1,-1,-1],"loss_changes":[5.9211575E1,2.6023754E1,6.4128876E-2,4.3680115E0,2.781053E1,9.0919995E-1,0E0,9.4953537E-1,2.86354E0,4.7760925E0,7.060253E0,5.0021803E-1,0E0,0E0,2.8049164E0,1.5647596E-1,8.4681034E-1,1.5186787E-1,7.4864116E0,1.520843E1,1.6179352E0,0E0,0E0,0E0,0E0,0E0,0E0,0E0,0E0,0E0,0E0,0E0,0E0,0E0,0E0,0E0,0E0],"parents":[2147483647,0,0,1,1,2,2,3,3,4,4,5,5,7,7,8,8,9,9,10,10,11,11,14,14,15,15,16,16,17,17,18,18,19,19,20,20],"right_children":[2,4,6,8,10,12,-1,14,16,18,20,22,-1,-1,24,26,28,30,32,34,36,-1,-1,-1,-1,-1,-1,-1,-1,-1,-1,-1,-1,-1,-1,-1,-1],"split_conditions":[1.75E0,2E0,2E0,1.5E0,2.5E-1,1.5E0,4.5172863E-2,1.75E0,1.5E0,3E0,2.5E0,3E0,4.2530768E-2,-3.266954E-2,1.25E0,2.5E-1,3E0,2.75E0,-2.5E-1,7.5E-1,5E-1,2.1403512E-2,-8.541146E-3,-2.5979722E-2,2.1676233E-2,-7.5476863E-3,-2.5495661E-2,-1.5754957E-3,4.2845953E-2,-3.3337396E-2,-2.1505019E-2,-2.9715065E-2,4.4103187E-2,-2.8163001E-2,3.2874282E-2,2.277456E-2,4.67018E-2],"split_indices":[9,0,9,9,9,0,0,0,0,0,0,5,0,0,9,10,1,0,9,9,9,0,0,0,0,0,0,0,0,0,0,0,0,0,0,0,0],"split_type":[0,0,0,0,0,0,0,0,0,0,0,0,0,0,0,0,0,0,0,0,0,0,0,0,0,0,0,0,0,0,0,0,0,0,0,0,0],"sum_hessian":[3.120864E2,2.4574294E2,6.6343445E1,1.128944E2,1.3284854E2,8.308535E0,5.8034912E1,1.0227767E2,1.0616732E1,5.2357555E1,8.049098E1,3.82155E0,4.4869847E0,7.9738014E1,2.2539656E1,6.290064E0,4.326668E0,4.054625E1,1.1811307E1,4.091148E1,3.95795E1,1.9615656E0,1.8599844E0,1.9691317E1,2.8483403E0,3.78559E0,2.504474E0,1.3785356E0,2.9481323E0,2.825668E1,1.228957E1,6.3359957E0,5.475311E0,1.5821949E1,2.5089533E1,1.4199666E1,2.5379833E1],"tree_param":{"num_deleted":"0","num_feature":"14","num_nodes":"37","size_leaf_vector":"1"}},{"base_weights":[-1.4719513E-2,2.7014625E-1,-5.506509E-1,7.9619956E-1,-1.6630988E-1,-1.1372347E-1,-3.1908162E-2,9.4119656E-1,3.1241807E-1,7.473609E-1,-5.447993E-1,3.9809033E-2,-5.4842275E-1,5.1001128E-2,6.624196E-1,7.878746E-1,-4.4237143E-1,9.0832883E-1,1.6428557E-1,-2.1264663E-1,-6.2930804E-1,-3.05329E-2,-3.708255E-3,4.195247E-2,-2.358341E-2,4.4205043E-2,1.6194662E-2,-2.5651667E-2,-1.0074303E-3,4.6699617E-2,1.4660402E-2,3.6989786E-2,-2.6777191E-2,3.4492124E-2,-2.8054962E-2,-1.4414385E-2,-3.269681E-2],"categories":[],"categories_nodes":[],"categories_segments":[],"categories_sizes":[],"default_left":[0,0,0,0,0,0,0,0,0,0,0,0,0,0,0,0,0,0,0,0,0,0,0,0,0,0,0,0,0,0,0,0,0,0,0,0,0],"id":30,"left_children":[1,3,5,7,9,11,-1,13,15,17,19,-1,21,-1,23,25,27,29,31,33,35,-1,-1,-1,-1,-1,-1,-1,-1,-1,-1,-1,-1,-1,-1,-1,-1],"loss_changes":[4.5866234E1,4.5179226E1,3.9139023E0,5.9588394E0,3.777512E1,7.7992187E0,0E0,8.205185E-1,8.262547E0,2.8610363E0,2.0271263E0,0E0,3.4397697E-1,0E0,3.9735084E0,3.337717E-1,2.6304615E-1,1.19436264E-1,3.6825256E0,5.77234E0,3.226223E-1,0E0,0E0,0E0,0E0,0E0,0E0,0E0,0E0,0E0,0E0,0E0,0E0,0E0,0E0,0E0,0E0],"parents":[2147483647,0,0,1,1,2,2,3,3,4,4,5,5,7,7,8,8,9,9,10,10,12,12,14,14,15,15,16,16,17,17,18,18,19,19,20,20],"right_children":[2,4,6,8,10,12,-1,14,16,18,20,-1,22,-1,24,26,28,30,32,34,36,-1,-1,-1,-1,-1,-1,-1,-1,-1,-1,-1,-1,-1,-1,-1,-1],"split_conditions":[1E0,2E0,1.25E0,7.5E-1,-2.5E-1,1.25E0,-3.1908162E-2,5E-1,1.5E0,-5E-1,2.25E0,3.9809033E-2,1E2,5.1001128E-2,1.75E0,4.330127E-1,3.818813E-1,1.6666667E2,2.75E0,2.5E-1,0E0,-3.05329E-2,-3.708255E-3,4.195247E-2,-2.358341E-2,4.4205043E-2,1.6194662E-2,-2.5651667E-2,-1.0074303E-3,4.6699617E-2,1.4660402E-2,3.6989786E-2,-2.6777191E-2,3.4492124E-2,-2.8054962E-2,-1.4414385E-2,-3.269681E-2],"split_indices":[9,0,0,9,9,9,0,9,0,9,0,0,2,0,0,10,10,12,0,9,9,0,0,0,0,0,0,0,0,0,0,0,0,0,0,0,0],"split_type":[0,0,0,0,0,0,0,0,0,0,0,0,0,0,0,0,0,0,0,0,0,0,0,0,0,0,0,0,0,0,0,0,0,0,0,0,0],"sum_hessian":[2.9845584E2,1.951976E2,1.0325824E2,8.813986E1,1.0705774E2,1.7614233E1,8.5644005E1,6.708724E1,2.1052616E1,3.1073048E1,7.5984695E1,5.4256988E0,1.2188535E1,5.0226475E1,1.686077E1,1.28894615E1,8.163155E0,2.3913494E1,7.159554E0,1.6124655E1,5.9860035E1,1.0520374E1,1.6681604E0,1.4813742E1,2.0470273E0,9.925517E0,2.963945E0,6.80861E0,1.3545449E0,2.2458126E1,1.4553664E0,3.8973937E0,3.2621603E0,4.2186522E0,1.1906003E1,4.8876357E0,5.49724E1],"tree_param":{"num_deleted":"0","num_feature":"14","num_nodes":"37","size_leaf_vector":"1"}},{"base_weights":[-1.131251E-2,7.539614E-2,-3.0997857E-2,-4.8597112E-1,1.1851177E-1,-3.0879447E-2,1.5196734E-2,-1.8150474E-1,1.6682586E-1,-2.4618218E-2,3.9532322E-2,-3.0905267E-2,7.7578187E-1,2.0224486E-1,-3.3636984E-1,-4.964668E-3,4.6823315E-2,-2.1098058E-3,1.2702583E-2,4.096151E-2,-3.1547595E-2],"categories":[],"categories_nodes":[],"categories_segments":[],"categories_sizes":[],"default_left":[0,0,0,0,0,0,0,0,0,0,0,0,0,0,0,0,0,0,0,0,0],"id":31,"left_children":[1,3,-1,5,7,-1,9,11,13,-1,-1,-1,15,17,19,-1,-1,-1,-1,-1,-1],"loss_changes":[1.6517794E1,6.691208E0,0E0,1.3118052E0,3.731287E0,0E0,2.3898377E0,1.5481314E1,3.9967904E0,0E0,0E0,0E0,1.736196E0,2.6265945E0,5.579347E0,0E0,0E0,0E0,0E0,0E0,0E0],"parents":[2147483647,0,0,1,1,3,3,4,4,6,6,7,7,8,8,12,12,13,13,14,14],"right_children":[2,4,-1,6,8,-1,10,12,14,-1,-1,-1,16,18,20,-1,-1,-1,-1,-1,-1],"split_conditions":[2E0,-5E-1,-3.0997857E-2,3E0,1.25E0,-3.0879447E-2,-7.5E-1,1.25E0,3E0,-2.4618218E-2,3.9532322E-2,-3.0905267E-2,8.333333E0,1.4433756E-1,-2.5E-1,-4.964668E-3,4.6823315E-2,-2.1098058E-3,1.2702583E-2,4.096151E-2,-3.1547595E-2],"split_indices":[9,9,0,0,0,0,9,9,0,0,0,0,12,10,9,0,0,0,0,0,0],"split_type":[0,0,0,0,0,0,0,0,0,0,0,0,0,0,0,0,0,0,0,0,0],"sum_hessian":[3.1110092E2,2.7307437E2,3.8026558E1,1.8744812E1,2.5432954E2,1.4661956E1,4.0828557E0,3.48936E1,2.1943594E2,2.688313E0,1.3945427E0,2.4207378E1,1.068622E1,2.0556471E2,1.3871238E1,1.7170975E0,8.969123E0,3.5980896E1,1.6958382E2,2.4559464E0,1.1415292E1],"tree_param":{"num_deleted":"0","num_feature":"14","num_nodes":"21","size_leaf_vector":"1"}},{"base_weights":[4.954647E-2,-1.5409975E-1,8.3555496E-1,-5.281435E-1,1.3082713E-1,5.463102E-1,4.3737248E-2,-6.2566835E-1,-1.8510649E-1,-2.9342267E-1,5.8781046E-1,7.809566E-1,-3.1068397E-3,-2.8453135E-1,-3.1785835E-2,-5.2761227E-1,4.0577018E-1,-5.0573E-1,3.743521E-1,1.6752483E-1,7.643045E-1,1.351621E-2,4.3080755E-2,3.9974535E-3,-2.2830417E-2,-2.889966E-2,1.9003068E-3,-1.5758617E-3,3.5950165E-2,-3.16831E-2,-8.879897E-3,-2.9427448E-2,4.6322092E-2,-2.5044952E-2,3.669554E-2,2.7286798E-2,4.7381833E-2],"categories":[],"categories_nodes":[],"categories_segments":[],"categories_sizes":[],"default_left":[0,0,0,0,0,0,0,0,0,0,0,0,0,0,0,0,0,0,0,0,0,0,0,0,0,0,0,0,0,0,0,0,0,0,0,0,0],"id":32,"left_children":[1,3,5,7,9,11,-1,13,15,17,19,21,-1,23,-1,25,27,29,31,33,35,-1,-1,-1,-1,-1,-1,-1,-1,-1,-1,-1,-1,-1,-1,-1,-1],"loss_changes":[4.932876E1,2.6176292E1,2.4084091E-1,3.4342918E0,2.728556E1,1.5089276E0,0E0,1.0091019E-1,5.255489E0,1.0565506E1,4.8908176E0,7.416725E-2,0E0,2.9756194E-1,0E0,4.8373604E-1,1.3521594E0,2.2365074E0,1.0236637E1,8.427965E0,1.3809471E0,0E0,0E0,0E0,0E0,0E0,0E0,0E0,0E0,0E0,0E0,0E0,0E0,0E0,0E0,0E0,0E0],"parents":[2147483647,0,0,1,1,2,2,3,3,4,4,5,5,7,7,8,8,9,9,10,10,11,11,13,13,15,15,16,16,17,17,18,18,19,19,20,20],"right_children":[2,4,6,8,10,12,-1,14,16,18,20,22,-1,24,-1,26,28,30,32,34,36,-1,-1,-1,-1,-1,-1,-1,-1,-1,-1,-1,-1,-1,-1,-1,-1],"split_conditions":[1.75E0,2E0,2E0,1.25E0,5E-1,3E0,4.3737248E-2,5.8333332E1,1.5E0,3E0,2.25E0,1.4433756E-1,-3.1068397E-3,6.6666664E1,-3.1785835E-2,1E2,2.5E-1,2.75E0,-2.5E-1,1E0,7.5E-1,1.351621E-2,4.3080755E-2,3.9974535E-3,-2.2830417E-2,-2.889966E-2,1.9003068E-3,-1.5758617E-3,3.5950165E-2,-3.16831E-2,-8.879897E-3,-2.9427448E-2,4.6322092E-2,-2.5044952E-2,3.669554E-2,2.7286798E-2,4.7381833E-2],"split_indices":[9,0,9,9,9,5,0,2,0,0,0,10,0,12,0,2,10,0,9,9,9,0,0,0,0,0,0,0,0,0,0,0,0,0,0,0,0],"split_type":[0,0,0,0,0,0,0,0,0,0,0,0,0,0,0,0,0,0,0,0,0,0,0,0,0,0,0,0,0,0,0,0,0,0,0,0,0],"sum_hessian":[3.0637003E2,2.4396523E2,6.240478E1,1.0511703E2,1.388482E2,9.229056E0,5.3175724E1,8.12063E1,2.3910728E1,7.218848E1,6.665973E1,6.455847E0,2.7732093E0,3.1623397E0,7.804396E1,1.5204438E1,8.706289E0,5.4958153E1,1.7230322E1,2.0290678E1,4.636905E1,1.4742343E0,4.981612E0,1.1858822E0,1.9764576E0,1.3940818E1,1.2636205E0,4.00897E0,4.69732E0,3.887174E1,1.6086416E1,6.2549715E0,1.097535E1,9.360018E0,1.093066E1,2.2965885E1,2.3403166E1],"tree_param":{"num_deleted":"0","num_feature":"14","num_nodes":"37","size_leaf_vector":"1"}},{"base_weights":[-9.265561E-3,4.3345273E-1,-3.3842522E-1,4.9430527E-2,5.636317E-2,1.0451032E-1,-5.6908494E-1,8.771812E-1,-3.378175E-1,6.5293694E-1,-6.0561854E-1,-2.675741E-1,-3.1929996E-2,4.503938E-2,1.4728549E-2,3.672441E-1,-5.145862E-1,8.5990846E-1,1.929675E-1,-2.5274408E-1,-3.1858224E-2,4.639517E-1,-5.8332324E-1,3.9629158E-2,-1.7731166E-2,-8.176277E-3,-3.2591432E-2,4.612326E-2,1.9754583E-2,3.8086798E-2,-2.126733E-2,-2.111355E-2,2.9395053E-3,-6.156537E-3,3.15729E-2,-9.582163E-3,-3.174893E-2],"categories":[],"categories_nodes":[],"categories_segments":[],"categories_sizes":[],"default_left":[0,0,0,0,0,0,0,0,0,0,0,0,0,0,0,0,0,0,0,0,0,0,0,0,0,0,0,0,0,0,0,0,0,0,0,0,0],"id":33,"left_children":[1,3,5,-1,7,9,11,13,15,17,19,21,-1,-1,-1,23,25,27,29,31,-1,33,35,-1,-1,-1,-1,-1,-1,-1,-1,-1,-1,-1,-1,-1,-1],"loss_changes":[4.2936897E1,2.6249819E1,1.7323696E1,0E0,2.4850496E1,2.3259748E1,2.161316E0,7.709503E-2,6.6687474E0,3.0334806E0,1.295166E-1,5.4835424E0,0E0,0E0,0E0,3.6601667E0,1.9162846E0,3.010807E-1,4.4451723E0,2.2548436E-1,0E0,8.016709E-1,2.0622492E-1,0E0,0E0,0E0,0E0,0E0,0E0,0E0,0E0,0E0,0E0,0E0,0E0,0E0,0E0],"parents":[2147483647,0,0,1,1,2,2,4,4,5,5,6,6,7,7,8,8,9,9,10,10,11,11,15,15,16,16,17,17,18,18,19,19,21,21,22,22],"right_children":[2,4,6,-1,8,10,12,14,16,18,20,22,-1,-1,-1,24,26,28,30,32,-1,34,36,-1,-1,-1,-1,-1,-1,-1,-1,-1,-1,-1,-1,-1,-1],"split_conditions":[5E-1,2E0,1.5E0,4.9430527E-2,-5E-1,1.25E0,1.75E0,1.75E2,2.25E0,1E0,1E0,7.5E-1,-3.1929996E-2,4.503938E-2,1.4728549E-2,2.5E-1,0E0,5E-1,1.25E0,3E0,-3.1858224E-2,8.333333E0,6.6666664E1,3.9629158E-2,-1.7731166E-2,-8.176277E-3,-3.2591432E-2,4.612326E-2,1.9754583E-2,3.8086798E-2,-2.126733E-2,-2.111355E-2,2.9395053E-3,-6.156537E-3,3.15729E-2,-9.582163E-3,-3.174893E-2],"split_indices":[9,0,0,0,9,9,0,12,0,9,1,9,0,0,0,9,9,10,0,6,0,12,2,0,0,0,0,0,0,0,0,0,0,0,0,0,0],"split_type":[0,0,0,0,0,0,0,0,0,0,0,0,0,0,0,0,0,0,0,0,0,0,0,0,0,0,0,0,0,0,0,0,0,0,0,0,0],"sum_hessian":[2.9263666E2,1.24656876E2,1.6797978E2,4.976714E1,7.488973E1,5.770872E1,1.10271065E2,2.389886E1,5.099087E1,3.2607082E1,2.5101639E1,2.1568792E1,8.870228E1,2.2443365E1,1.4554964E0,1.0005457E1,4.0985416E1,2.1888474E1,1.0718607E1,2.7993937E0,2.2302246E1,6.36139E0,1.5207402E1,6.234185E0,3.7712722E0,1.2135306E1,2.885011E1,1.8424292E1,3.4641821E0,5.4621677E0,5.256439E0,1.5826888E0,1.216705E0,1.4709314E0,4.8904586E0,2.320688E0,1.2886714E1],"tree_param":{"num_deleted":"0","num_feature":"14","num_nodes":"37","size_leaf_vector":"1"}},{"base_weights":[-2.1420496E-2,6.591079E-2,-3.0648941E-2,-3.0522767E-2,1.0487664E-1,-2.4075636E-1,1.5703444E-1,-3.032275E-2,6.981777E-1,2.0796396E-1,-1.3187203E-1,-4.768926E-3,4.3994315E-2,-1.8703153E-2,1.3721821E-2,2.9301956E-2,-2.4193004E-2],"categories":[],"categories_nodes":[],"categories_segments":[],"categories_sizes":[],"default_left":[0,0,0,0,0,0,0,0,0,0,0,0,0,0,0,0,0],"id":34,"left_children":[1,3,-1,-1,5,7,9,-1,11,13,15,-1,-1,-1,-1,-1,-1],"loss_changes":[1.5480302E1,6.951252E0,0E0,0E0,4.5075717E0,1.1721762E1,3.206171E0,0E0,1.4809303E0,7.223286E0,8.619605E0,0E0,0E0,0E0,0E0,0E0,0E0],"parents":[2147483647,0,0,1,1,4,4,5,5,6,6,8,8,9,9,10,10],"right_children":[2,4,-1,-1,6,8,10,-1,12,14,16,-1,-1,-1,-1,-1,-1],"split_conditions":[2E0,-7.5E-1,-3.0648941E-2,-3.0522767E-2,1.25E0,1.25E0,2.75E0,-3.032275E-2,8.333333E0,0E0,0E0,-4.768926E-3,4.3994315E-2,-1.8703153E-2,1.3721821E-2,2.9301956E-2,-2.4193004E-2],"split_indices":[9,9,0,0,0,9,0,0,12,9,9,0,0,0,0,0,0],"split_type":[0,0,0,0,0,0,0,0,0,0,0,0,0,0,0,0,0],"sum_hessian":[2.9786636E2,2.6032358E2,3.7542778E1,1.3381535E1,2.4694205E2,3.1904598E1,2.1503745E2,2.321634E1,8.68826E0,1.8304904E2,3.1988405E1,1.7072915E0,6.980969E0,1.8288568E1,1.6476047E2,1.0305162E1,2.1683243E1],"tree_param":{"num_deleted":"0","num_feature":"14","num_nodes":"17","size_leaf_vector":"1"}},{"base_weights":[5.380014E-2,-1.5033026E-1,8.0970204E-1,-5.0429034E-1,8.78421E-4,4.7074357E-1,4.245491E-2,-3.2417532E-2,-3.9600903E-1,1.3121934E-1,-3.0532193E-1,3.7050903E-2,-1.2329667E-2,-1.674987E-1,-5.2179736E-1,4.4836313E-1,9.0301186E-2,6.8922326E-2,-3.8363853E-1,-2.5888005E-2,-2.8512692E-3,-1.0437089E-2,-2.8619751E-2,-6.6649206E-3,2.7012816E-2,1.0253877E-4,8.817196E-3,2.749945E-2,-7.539199E-3,-2.0683344E-2,7.2140554E-3],"categories":[],"categories_nodes":[],"categories_segments":[],"categories_sizes":[],"default_left":[0,0,0,0,0,0,0,0,0,0,0,0,0,0,0,0,0,0,0,0,0,0,0,0,0,0,0,0,0,0,0],"id":35,"left_children":[1,3,5,7,9,11,-1,-1,13,15,17,-1,-1,19,21,23,25,27,29,-1,-1,-1,-1,-1,-1,-1,-1,-1,-1,-1,-1],"loss_changes":[4.8802814E1,1.3340874E1,4.981804E-1,9.0707016E-1,7.0500712E0,1.9752169E0,0E0,0E0,1.2107611E0,1.5673535E0,1.5723305E0,0E0,0E0,6.479071E-1,3.3442163E-1,8.1533813E-1,8.424436E-1,1.1372304E0,7.5352716E-1,0E0,0E0,0E0,0E0,0E0,0E0,0E0,0E0,0E0,0E0,0E0,0E0],"parents":[2147483647,0,0,1,1,2,2,3,3,4,4,5,5,8,8,9,9,10,10,13,13,14,14,15,15,16,16,17,17,18,18],"right_children":[2,4,6,8,10,12,-1,-1,14,16,18,-1,-1,20,22,24,26,28,30,-1,-1,-1,-1,-1,-1,-1,-1,-1,-1,-1,-1],"split_conditions":[1.75E0,2.5E-1,2E0,-2.5E-1,9.1666664E1,3E0,4.245491E-2,-3.2417532E-2,8.3333336E1,5.8333332E1,1.4433756E-1,3.7050903E-2,-1.2329667E-2,1.4433756E-1,3E0,2E0,5.8333332E1,4E0,1.5E0,-2.5888005E-2,-2.8512692E-3,-1.0437089E-2,-2.8619751E-2,-6.6649206E-3,2.7012816E-2,1.0253877E-4,8.817196E-3,2.749945E-2,-7.539199E-3,-2.0683344E-2,7.2140554E-3],"split_indices":[9,9,9,9,2,5,0,0,2,2,10,0,0,10,13,6,12,13,9,0,0,0,0,0,0,0,0,0,0,0,0],"split_type":[0,0,0,0,0,0,0,0,0,0,0,0,0,0,0,0,0,0,0,0,0,0,0,0,0,0,0,0,0,0,0],"sum_hessian":[3.1449115E2,2.4825209E2,6.623906E1,7.360865E1,1.7464345E2,8.245445E0,5.7993614E1,2.9445683E1,4.416297E1,1.22899864E2,5.1743572E1,5.964979E0,2.2804663E0,1.6507185E1,2.7655785E1,1.2906682E1,1.0999319E2,8.975088E0,4.2768486E1,3.0740392E0,1.34331455E1,4.561095E0,2.309469E1,1.6993891E0,1.1207293E1,5.4805412E1,5.5187775E1,2.3425574E0,6.632531E0,4.067149E1,2.096996E0],"tree_param":{"num_deleted":"0","num_feature":"14","num_nodes":"31","size_leaf_vector":"1"}},{"base_weights":[-3.7135493E-2,3.0671573E-1,-2.6659244E-1,5.634939E-1,2.6249938E-2,-3.8788155E-1,5.8808967E-2,5.964346E-1,-1.9635507E-1,1.1913366E-1,-3.657913E-1,-1.0610708E-1,-4.6975493E-1,1.2701215E-1,-4.3052828E-1,3.7947774E-2,4.826556E-1,1.5284813E-3,-1.700587E-2,4.042853E-1,-2.7648222E-2,-2.7841518E-2,-1.3493326E-1,3.1598743E-2,-4.061844E-1,-1.718225E-1,-5.12782E-1,3.6627624E-2,5.5501854E-1,-2.6945297E-2,-2.1454932E-4,3.332661E-2,1.3053298E-2,2.5806699E-2,1.0029889E-3,5.3881295E-3,-9.245584E-3,-1.4153031E-2,5.5918596E-3,1.4729353E-2,-7.9824235E-3,9.991544E-3,-2.796867E-2,1.6297227E-2,-2.0422032E-2,-2.0799479E-2,-2.950095E-2,7.5236857E-3,-8.772521E-3,1.6072089E-3,4.0323194E-2],"categories":[],"categories_nodes":[],"categories_segments":[],"categories_sizes":[],"default_left":[0,0,0,0,0,0,0,0,0,0,0,0,0,0,0,0,0,0,0,0,0,0,0,0,0,0,0,0,0,0,0,0,0,0,0,0,0,0,0,0,0,0,0,0,0,0,0,0,0,0,0],"id":36,"left_children":[1,3,5,7,9,11,13,15,17,19,21,23,25,27,29,-1,31,-1,-1,33,35,-1,37,39,41,43,45,47,49,-1,-1,-1,-1,-1,-1,-1,-1,-1,-1,-1,-1,-1,-1,-1,-1,-1,-1,-1,-1,-1,-1],"loss_changes":[2.2815056E1,8.323734E0,6.864394E0,1.6288223E0,2.0969298E0,2.8664074E0,1.654544E0,7.086735E-1,1.16807744E-1,1.9508343E0,4.1204798E-1,1.2422701E0,1.1637783E0,1.6371363E0,2.790984E-1,0E0,1.3311853E0,0E0,0E0,6.691797E-1,6.9136196E-1,0E0,2.6273993E-1,1.119409E0,9.872905E-1,1.7617679E0,3.8874245E-1,9.063472E-1,9.469371E-1,0E0,0E0,0E0,0E0,0E0,0E0,0E0,0E0,0E0,0E0,0E0,0E0,0E0,0E0,0E0,0E0,0E0,0E0,0E0,0E0,0E0,0E0],"parents":[2147483647,0,0,1,1,2,2,3,3,4,4,5,5,6,6,7,7,8,8,9,9,10,10,11,11,12,12,13,13,14,14,16,16,19,19,20,20,22,22,23,23,24,24,25,25,26,26,27,27,28,28],"right_children":[2,4,6,8,10,12,14,16,18,20,22,24,26,28,30,-1,32,-1,-1,34,36,-1,38,40,42,44,46,48,50,-1,-1,-1,-1,-1,-1,-1,-1,-1,-1,-1,-1,-1,-1,-1,-1,-1,-1,-1,-1,-1,-1],"split_conditions":[1.75E0,4E0,9.1666664E1,1.16666664E2,4E0,1.4433756E-1,3.3333332E1,1.25E0,1.3333333E2,1.25E0,8.3333336E1,6E0,2E0,7E0,2.75E0,3.7947774E-2,1E0,1.5284813E-3,-1.700587E-2,4E0,5E1,-2.7841518E-2,8E0,5.8333332E1,5.8333332E1,1E0,2.5E-1,4E0,1.4433756E-1,-2.6945297E-2,-2.1454932E-4,3.332661E-2,1.3053298E-2,2.5806699E-2,1.0029889E-3,5.3881295E-3,-9.245584E-3,-1.4153031E-2,5.5918596E-3,1.4729353E-2,-7.9824235E-3,9.991544E-3,-2.796867E-2,1.6297227E-2,-2.0422032E-2,-2.0799479E-2,-2.950095E-2,7.5236857E-3,-8.772521E-3,1.6072089E-3,4.0323194E-2],"split_indices":[0,8,2,12,6,10,12,0,12,0,2,8,0,13,0,0,3,0,0,5,12,0,13,12,2,3,10,8,10,0,0,0,0,0,0,0,0,0,0,0,0,0,0,0,0,0,0,0,0,0,0],"split_type":[0,0,0,0,0,0,0,0,0,0,0,0,0,0,0,0,0,0,0,0,0,0,0,0,0,0,0,0,0,0,0,0,0,0,0,0,0,0,0,0,0,0,0,0,0,0,0,0,0,0,0],"sum_hessian":[2.8713135E2,1.1478473E2,1.7234662E2,5.9396034E1,5.538869E1,1.2540976E2,4.693686E1,5.713423E1,2.261802E0,4.534219E1,1.0046504E1,2.8752275E1,9.6657486E1,4.1844997E1,5.09186E0,2.1192553E1,3.594168E1,1.1825464E0,1.0792557E0,1.4812252E1,3.0529936E1,4.724715E0,5.321789E0,2.0321442E1,8.430834E0,1.28277235E1,8.3829765E1,3.5445374E1,6.399622E0,3.8488858E0,1.242974E0,1.8544977E1,1.7396702E1,1.1206665E1,3.605587E0,1.6573866E1,1.3956071E1,3.2336721E0,2.0881164E0,8.328453E0,1.1992989E1,1.6397021E0,6.7911315E0,4.0114446E0,8.816278E0,4.003913E1,4.379063E1,2.3253235E1,1.2192141E1,2.4443967E0,3.9552255E0],"tree_param":{"num_deleted":"0","num_feature":"14","num_nodes":"51","size_leaf_vector":"1"}},{"base_weights":[-1.1289879E-2,7.039935E-2,-3.026465E-2,-4.6000502E-1,1.0917612E-1,-3.0037686E-2,3.8429204E-2,-1.8730716E-1,1.5363677E-1,-2.3568867E-2,3.8599133E-2,-5.91437E-1,7.0306784E-1,2.00479E-1,-1.3394293E-1,-3.142612E-2,-1.4465155E-2,-4.590292E-3,4.318603E-2,-1.858229E-2,1.2668523E-2,4.0165424E-2,-2.4325555E-2],"categories":[],"categories_nodes":[],"categories_segments":[],"categories_sizes":[],"default_left":[0,0,0,0,0,0,0,0,0,0,0,0,0,0,0,0,0,0,0,0,0,0,0],"id":37,"left_children":[1,3,-1,5,7,-1,9,11,13,-1,-1,15,17,19,21,-1,-1,-1,-1,-1,-1,-1,-1],"loss_changes":[1.4602997E1,5.494122E0,0E0,1.3015842E0,3.2907827E0,0E0,2.2161171E0,1.21896515E1,2.9330769E0,0E0,0E0,7.6423645E-2,1.4420886E0,5.7202935E0,1.057454E1,0E0,0E0,0E0,0E0,0E0,0E0,0E0,0E0],"parents":[2147483647,0,0,1,1,3,3,4,4,6,6,7,7,8,8,11,11,12,12,13,13,14,14],"right_children":[2,4,-1,6,8,-1,10,12,14,-1,-1,16,18,20,22,-1,-1,-1,-1,-1,-1,-1,-1],"split_conditions":[2E0,-5E-1,-3.026465E-2,3E0,1.25E0,-3.0037686E-2,-7.5E-1,1.25E0,2.75E0,-2.3568867E-2,3.8599133E-2,7.5E-1,8.333333E0,0E0,0E0,-3.142612E-2,-1.4465155E-2,-4.590292E-3,4.318603E-2,-1.858229E-2,1.2668523E-2,4.0165424E-2,-2.4325555E-2],"split_indices":[9,9,0,0,0,0,9,9,0,0,0,11,12,9,9,0,0,0,0,0,0,0,0],"split_type":[0,0,0,0,0,0,0,0,0,0,0,0,0,0,0,0,0,0,0,0,0,0,0],"sum_hessian":[2.9906778E2,2.6368628E2,3.5381508E1,1.722417E1,2.464621E2,1.3271314E1,3.9528582E0,3.1720806E1,2.1474129E2,2.5429554E0,1.4099029E0,2.2048857E1,9.671949E0,1.8492308E2,2.9818205E1,1.867617E1,3.3726869E0,1.6981976E0,7.9737515E0,1.5138963E1,1.6978412E2,7.8012533E0,2.2016953E1],"tree_param":{"num_deleted":"0","num_feature":"14","num_nodes":"23","size_leaf_vector":"1"}},{"base_weights":[4.50552E-2,-1.6003105E-1,7.88319E-1,-5.254719E-1,1.2917133E-1,5.371417E-1,4.1139238E-2,-5.8460385E-1,3.413372E-2,-4.2315903E-1,4.522553E-1,7.5454193E-1,-3.2893613E-3,-3.1643562E-2,-3.9505255E-1,-3.2019493E-1,5.431082E-1,-5.8843756E-1,1.4474384E-1,1.7398155E-1,7.6029456E-1,1.2348213E-2,4.1634824E-2,-3.1090243E-2,3.6248425E-4,7.154262E-3,-2.7443979E-2,-1.6091693E-3,3.9022144E-2,-3.24162E-2,-2.1089636E-2,-2.7941898E-2,4.150615E-2,-2.8282864E-2,3.1428482E-2,2.1743784E-2,4.5816433E-2],"categories":[],"categories_nodes":[],"categories_segments":[],"categories_sizes":[],"default_left":[0,0,0,0,0,0,0,0,0,0,0,0,0,0,0,0,0,0,0,0,0,0,0,0,0,0,0,0,0,0,0,0,0,0,0,0,0],"id":38,"left_children":[1,3,5,7,9,11,-1,13,15,17,19,21,-1,-1,23,25,27,29,31,33,35,-1,-1,-1,-1,-1,-1,-1,-1,-1,-1,-1,-1,-1,-1,-1,-1],"loss_changes":[4.5889996E1,2.5023464E1,1.2156677E-1,3.4783192E0,2.3856691E1,1.4567065E0,0E0,6.152992E-1,2.1455896E0,4.7276545E0,7.0815086E0,1.1051941E-1,0E0,0E0,1.9983525E0,8.2807505E-1,6.884302E-1,1.10845566E-1,6.227556E0,1.5657732E1,1.6145439E0,0E0,0E0,0E0,0E0,0E0,0E0,0E0,0E0,0E0,0E0,0E0,0E0,0E0,0E0,0E0,0E0],"parents":[2147483647,0,0,1,1,2,2,3,3,4,4,5,5,7,7,8,8,9,9,10,10,11,11,14,14,15,15,16,16,17,17,18,18,19,19,20,20],"right_children":[2,4,6,8,10,12,-1,14,16,18,20,22,-1,-1,24,26,28,30,32,34,36,-1,-1,-1,-1,-1,-1,-1,-1,-1,-1,-1,-1,-1,-1,-1,-1],"split_conditions":[1.75E0,2E0,2E0,1.5E0,2.5E-1,3E0,4.1139238E-2,1.75E0,1.5E0,3E0,7.5E-1,1.4433756E-1,-3.2893613E-3,-3.1643562E-2,1E0,3.3333332E1,3E0,2.75E0,-2.5E-1,2.5E0,2.25E0,1.2348213E-2,4.1634824E-2,-3.1090243E-2,3.6248425E-4,7.154262E-3,-2.7443979E-2,-1.6091693E-3,3.9022144E-2,-3.24162E-2,-2.1089636E-2,-2.7941898E-2,4.150615E-2,-2.8282864E-2,3.1428482E-2,2.1743784E-2,4.5816433E-2],"split_indices":[9,0,9,9,9,5,0,0,0,0,9,10,0,0,9,12,1,0,9,0,0,0,0,0,0,0,0,0,0,0,0,0,0,0,0,0,0],"split_type":[0,0,0,0,0,0,0,0,0,0,0,0,0,0,0,0,0,0,0,0,0,0,0,0,0,0,0,0,0,0,0,0,0,0,0,0,0],"sum_hessian":[2.9922235E2,2.3512875E2,6.409359E1,1.0351214E2,1.3161661E2,9.734666E0,5.435892E1,9.357922E1,9.932918E0,4.8460644E1,8.315597E1,6.9700055E0,2.7646608E0,7.272239E1,2.085683E1,6.0747857E0,3.8581324E0,3.7508324E1,1.0952323E1,4.4510906E1,3.8645058E1,1.485075E0,5.48493E0,1.2989728E1,7.8671026E0,2.1313357E0,3.9434497E0,1.3792558E0,2.4788766E0,2.5466202E1,1.204212E1,5.4955E0,5.456823E0,1.685028E1,2.7660627E1,1.37518215E1,2.4893238E1],"tree_param":{"num_deleted":"0","num_feature":"14","num_nodes":"37","size_leaf_vector":"1"}},{"base_weights":[-2.1028101E-2,2.341923E-1,-5.428092E-1,7.8578997E-1,-9.632516E-2,-1.4204708E-1,-3.0947432E-2,4.3692596E-2,5.046344E-1,7.2074485E-1,-4.4877902E-1,3.2627944E-2,-5.1288444E-1,6.845526E-1,-1.922214E-1,8.420542E-1,3.2716823E-1,-1.23474464E-1,-5.957861E-1,-2.9143631E-2,-2.646918E-3,4.1776E-2,2.0535365E-2,-2.2542158E-2,2.54693E-3,1.293414E-2,4.3268535E-2,3.9209377E-2,-2.5917282E-2,2.5529316E-2,-3.157837E-2,-9.126068E-3,-3.188432E-2],"categories":[],"categories_nodes":[],"categories_segments":[],"categories_sizes":[],"default_left":[0,0,0,0,0,0,0,0,0,0,0,0,0,0,0,0,0,0,0,0,0,0,0,0,0,0,0,0,0,0,0,0,0],"id":39,"left_children":[1,3,5,7,9,11,-1,-1,13,15,17,-1,19,21,23,25,27,29,31,-1,-1,-1,-1,-1,-1,-1,-1,-1,-1,-1,-1,-1,-1],"loss_changes":[3.7033245E1,3.41326E1,2.6989765E0,1.2947044E0,3.4219296E1,5.013877E0,0E0,0E0,2.5246491E0,1.4363918E0,3.888361E0,0E0,3.3568788E-1,2.9307175E-1,3.183741E-1,1.4030075E-1,4.3027287E0,9.0361805E0,8.6714363E-1,0E0,0E0,0E0,0E0,0E0,0E0,0E0,0E0,0E0,0E0,0E0,0E0,0E0,0E0],"parents":[2147483647,0,0,1,1,2,2,3,3,4,4,5,5,8,8,9,9,10,10,12,12,13,13,14,14,15,15,16,16,17,17,18,18],"right_children":[2,4,6,8,10,12,-1,-1,14,16,18,-1,20,22,24,26,28,30,32,-1,-1,-1,-1,-1,-1,-1,-1,-1,-1,-1,-1,-1,-1],"split_conditions":[1E0,1.75E0,1.25E0,7.5E-1,-2.5E-1,1.25E0,-3.0947432E-2,4.3692596E-2,1.5E0,-5E-1,2.25E0,3.2627944E-2,1E2,1.25E0,2E0,5E1,2.75E0,5E-1,0E0,-2.9143631E-2,-2.646918E-3,4.1776E-2,2.0535365E-2,-2.2542158E-2,2.54693E-3,1.293414E-2,4.3268535E-2,3.9209377E-2,-2.5917282E-2,2.5529316E-2,-3.157837E-2,-9.126068E-3,-3.188432E-2],"split_indices":[9,0,0,9,9,9,0,0,0,9,0,0,2,0,1,2,0,9,9,0,0,0,0,0,0,0,0,0,0,0,0,0,0],"split_type":[0,0,0,0,0,0,0,0,0,0,0,0,0,0,0,0,0,0,0,0,0,0,0,0,0,0,0,0,0,0,0,0,0],"sum_hessian":[2.7613715E2,1.8580495E2,9.0332184E1,6.910266E1,1.16702286E2,1.4879446E1,7.5452736E1,5.1015736E1,1.8086931E1,3.4855106E1,8.1847176E1,4.492825E0,1.03866205E1,1.4389439E1,3.6974926E0,2.577207E1,9.083038E0,2.6047626E1,5.579955E1,8.782899E0,1.6037219E0,7.953635E0,6.435803E0,1.3778882E0,2.3196042E0,1.4552999E0,2.4316769E1,5.9431586E0,3.1398792E0,1.1585237E1,1.446239E1,5.629688E0,5.0169865E1],"tree_param":{"num_deleted":"0","num_feature":"14","num_nodes":"33","size_leaf_vector":"1"}},{"base_weights":[-3.1863283E-2,4.7346376E-2,-2.994513E-2,-2.9880166E-2,8.114961E-2,-2.4921586E-1,1.2805687E-1,-2.9387657E-2,6.442241E-1,1.790806E-1,-1.7815515E-1,-4.215822E-3,4.0979434E-2,-1.7832385E-2,1.1844449E-2,2.742582E-2,-2.7678806E-2],"categories":[],"categories_nodes":[],"categories_segments":[],"categories_sizes":[],"default_left":[0,0,0,0,0,0,0,0,0,0,0,0,0,0,0,0,0],"id":40,"left_children":[1,3,-1,-1,5,7,9,-1,11,13,15,-1,-1,-1,-1,-1,-1],"loss_changes":[1.3448948E1,5.784508E0,0E0,0E0,3.9196944E0,9.915912E0,3.4746466E0,0E0,1.2370665E0,5.9493504E0,9.026268E0,0E0,0E0,0E0,0E0,0E0,0E0],"parents":[2147483647,0,0,1,1,4,4,5,5,6,6,8,8,9,9,10,10],"right_children":[2,4,-1,-1,6,8,10,-1,12,14,16,-1,-1,-1,-1,-1,-1],"split_conditions":[2E0,-7.5E-1,-2.994513E-2,-2.9880166E-2,1.25E0,1.25E0,2.75E0,-2.9387657E-2,8.333333E0,0E0,0E0,-4.215822E-3,4.0979434E-2,-1.7832385E-2,1.1844449E-2,2.742582E-2,-2.7678806E-2],"split_indices":[9,9,0,0,0,9,0,0,12,9,9,0,0,0,0,0,0],"split_type":[0,0,0,0,0,0,0,0,0,0,0,0,0,0,0,0,0],"sum_hessian":[2.9779984E2,2.6210318E2,3.569666E1,1.222261E1,2.4988055E2,3.0532038E1,2.1934851E2,2.2390211E1,8.141828E0,1.88375E2,3.0973518E1,1.6803048E0,6.4615226E0,1.7843569E1,1.7053143E2,1.0393875E1,2.0579643E1],"tree_param":{"num_deleted":"0","num_feature":"14","num_nodes":"17","size_leaf_vector":"1"}},{"base_weights":[2.8494513E-2,-1.8017651E-1,3.919546E-2,-5.2509105E-1,8.075023E-2,-5.8724993E-1,4.336595E-2,-3.1591138E-1,5.225875E-1,-3.195918E-2,-3.970777E-1,-3.100038E-1,5.419477E-1,-4.8021588E-1,2.9220337E-1,9.335425E-2,7.12484E-1,-2.6954306E-2,2.033568E-2,1.3559123E-2,-2.7582804E-2,-1.5077513E-3,3.8839106E-2,-2.678434E-2,1.6762583E-2,-2.8012294E-2,4.2306006E-2,-2.914815E-2,3.4259267E-2,2.3818722E-2,4.2608913E-2],"categories":[],"categories_nodes":[],"categories_segments":[],"categories_sizes":[],"default_left":[0,0,0,0,0,0,0,0,0,0,0,0,0,0,0,0,0,0,0,0,0,0,0,0,0,0,0,0,0,0,0],"id":41,"left_children":[1,3,-1,5,7,9,11,13,15,-1,17,19,21,23,25,27,29,-1,-1,-1,-1,-1,-1,-1,-1,-1,-1,-1,-1,-1,-1],"loss_changes":[4.684863E1,2.1010363E1,0E0,3.5757504E0,2.356369E1,6.413975E-1,2.0769575E0,7.2317324E0,5.112158E0,0E0,2.739956E0,1.1294872E0,6.760913E-1,2.7242641E0,7.896242E0,8.660005E0,1.0418911E0,0E0,0E0,0E0,0E0,0E0,0E0,0E0,0E0,0E0,0E0,0E0,0E0,0E0,0E0],"parents":[2147483647,0,0,1,1,3,3,4,4,5,5,6,6,7,7,8,8,10,10,11,11,12,12,13,13,14,14,15,15,16,16],"right_children":[2,4,-1,6,8,10,12,14,16,-1,18,20,22,24,26,28,30,-1,-1,-1,-1,-1,-1,-1,-1,-1,-1,-1,-1,-1,-1],"split_conditions":[1.75E0,2E0,3.919546E-2,1.5E0,5E-1,1.75E0,1.5E0,3E0,2.25E0,-3.195918E-2,1.25E0,3.3333332E1,3E0,1.6666667E2,-2.5E-1,1E0,2.5E0,-2.6954306E-2,2.033568E-2,1.3559123E-2,-2.7582804E-2,-1.5077513E-3,3.8839106E-2,-2.678434E-2,1.6762583E-2,-2.8012294E-2,4.2306006E-2,-2.914815E-2,3.4259267E-2,2.3818722E-2,4.2608913E-2],"split_indices":[9,0,0,9,9,0,0,0,0,0,9,12,1,12,9,9,0,0,0,0,0,0,0,0,0,0,0,0,0,0,0],"split_type":[0,0,0,0,0,0,0,0,0,0,0,0,0,0,0,0,0,0,0,0,0,0,0,0,0,0,0,0,0,0,0],"sum_hessian":[2.9530435E2,2.3198402E2,6.3320324E1,9.9476006E1,1.3250803E2,8.9641E1,9.835006E0,6.997374E1,6.253428E1,6.8557686E1,2.1083313E1,5.977022E0,3.857984E0,5.525492E1,1.47188225E1,1.9637716E1,4.289656E1,1.8197605E1,2.8857086E0,1.7194515E0,4.2575703E0,1.376398E0,2.481586E0,5.2056923E1,3.1979973E0,5.792712E0,8.92611E0,9.171702E0,1.0466015E1,1.7584892E1,2.5311668E1],"tree_param":{"num_deleted":"0","num_feature":"14","num_nodes":"31","size_leaf_vector":"1"}},{"base_weights":[-1.651432E-3,2.6722664E-1,-5.430709E-1,7.3299325E-1,-1.3291954E-1,-1.7072088E-1,-3.073414E-2,4.594739E-2,4.992436E-1,6.4241207E-1,-5.0778836E-1,6.2045145E-1,-5.148078E-1,6.9215894E-1,-2.8951963E-2,7.805509E-1,1.6658008E-1,-1.0860278E-2,-5.5901575E-1,3.6303215E-2,1.0158054E-2,-2.8864315E-2,-6.3598077E-3,4.241836E-2,1.9126028E-2,4.298126E-2,2.3201516E-2,3.516322E-2,-2.6292944E-2,3.3636086E-2,-2.8341899E-2,-1.573315E-2,-3.1637054E-2],"categories":[],"categories_nodes":[],"categories_segments":[],"categories_sizes":[],"default_left":[0,0,0,0,0,0,0,0,0,0,0,0,0,0,0,0,0,0,0,0,0,0,0,0,0,0,0,0,0,0,0,0,0],"id":42,"left_children":[1,3,5,7,9,11,-1,-1,13,15,17,19,21,23,-1,25,27,29,31,-1,-1,-1,-1,-1,-1,-1,-1,-1,-1,-1,-1,-1,-1],"loss_changes":[4.146269E1,3.556684E1,2.4151192E0,3.3705864E0,3.032505E1,4.846376E0,0E0,0E0,8.975793E0,2.110116E0,1.7792664E0,9.460139E-2,2.2046089E-1,1.3887844E0,0E0,2.553892E-1,3.691805E0,3.2598937E0,9.4591904E-1,0E0,0E0,0E0,0E0,0E0,0E0,0E0,0E0,0E0,0E0,0E0,0E0,0E0,0E0],"parents":[2147483647,0,0,1,1,2,2,3,3,4,4,5,5,8,8,9,9,10,10,11,11,12,12,13,13,15,15,16,16,17,17,18,18],"right_children":[2,4,6,8,10,12,-1,-1,14,16,18,20,22,24,-1,26,28,30,32,-1,-1,-1,-1,-1,-1,-1,-1,-1,-1,-1,-1,-1,-1],"split_conditions":[1E0,2E0,1.25E0,5E-1,-2.5E-1,1.25E0,-3.073414E-2,4.594739E-2,1.75E0,-5E-1,0E0,5E0,1E2,5E1,-2.8951963E-2,3E0,2.75E0,2.5E0,2.25E0,3.6303215E-2,1.0158054E-2,-2.8864315E-2,-6.3598077E-3,4.241836E-2,1.9126028E-2,4.298126E-2,2.3201516E-2,3.516322E-2,-2.6292944E-2,3.3636086E-2,-2.8341899E-2,-1.573315E-2,-3.1637054E-2],"split_indices":[9,0,0,9,9,9,0,0,0,9,9,13,2,12,0,0,0,0,0,0,0,0,0,0,0,0,0,0,0,0,0,0,0],"split_type":[0,0,0,0,0,0,0,0,0,0,0,0,0,0,0,0,0,0,0,0,0,0,0,0,0,0,0,0,0,0,0,0,0],"sum_hessian":[2.8282166E2,1.8931236E2,9.3509285E1,8.709857E1,1.0221379E2,1.562906E1,7.7880226E1,4.687602E1,4.0222557E1,3.308051E1,6.913328E1,4.493591E0,1.1135469E1,3.4422184E1,5.800373E0,2.5141333E1,7.9391775E0,6.574061E0,6.2559216E1,2.9955037E0,1.4980872E0,9.1683035E0,1.9671663E0,2.1723242E1,1.2698941E1,1.8743029E1,6.398304E0,4.463808E0,3.4753695E0,2.8544712E0,3.71959E0,1.5721249E1,4.6837967E1],"tree_param":{"num_deleted":"0","num_feature":"14","num_nodes":"33","size_leaf_vector":"1"}},{"base_weights":[-1.1253955E-2,6.1822176E-2,-2.95683E-2,-2.9377138E-2,9.2799924E-2,-2.3490262E-1,1.3690324E-1,-2.8831271E-2,6.3325906E-1,1.7617713E-1,-8.515452E-2,-4.021664E-3,4.0217914E-2,-1.6898086E-2,1.1437724E-2,3.1480223E-2,-2.3652663E-2],"categories":[],"categories_nodes":[],"categories_segments":[],"categories_sizes":[],"default_left":[0,0,0,0,0,0,0,0,0,0,0,0,0,0,0,0,0],"id":43,"left_children":[1,3,-1,-1,5,7,9,-1,11,13,15,-1,-1,-1,-1,-1,-1],"loss_changes":[1.2669311E1,5.3965487E0,0E0,0E0,3.7079988E0,9.424639E0,1.9754767E0,0E0,1.1761127E0,5.2496195E0,9.851333E0,0E0,0E0,0E0,0E0,0E0,0E0],"parents":[2147483647,0,0,1,1,4,4,5,5,6,6,8,8,9,9,10,10],"right_children":[2,4,-1,-1,6,8,10,-1,12,14,16,-1,-1,-1,-1,-1,-1],"split_conditions":[2E0,-7.5E-1,-2.95683E-2,-2.9377138E-2,1.25E0,1.25E0,2.75E0,-2.8831271E-2,8.333333E0,0E0,0E0,-4.021664E-3,4.0217914E-2,-1.6898086E-2,1.1437724E-2,3.1480223E-2,-2.3652663E-2],"split_indices":[9,9,0,0,0,9,0,0,12,9,9,0,0,0,0,0,0],"split_type":[0,0,0,0,0,0,0,0,0,0,0,0,0,0,0,0,0],"sum_hessian":[2.9699606E2,2.6456277E2,3.2433277E1,1.1228157E1,2.5333463E2,2.9537184E1,2.2379744E2,2.143559E1,8.101593E0,1.9033989E2,3.3457546E1,1.6691413E0,6.432452E0,1.7155289E1,1.731846E2,1.1550669E1,2.1906878E1],"tree_param":{"num_deleted":"0","num_feature":"14","num_nodes":"17","size_leaf_vector":"1"}},{"base_weights":[5.6829542E-2,-1.6467929E-1,6.846117E-1,-5.0115526E-1,1.7964973E-1,2.700471E-1,7.7407044E-1,-3.0781357E-2,-2.6695165E-1,-4.0363005E-1,5.8357245E-1,-3.2378256E-1,7.288686E-1,5.3026325E-1,4.0138576E-2,-5.952308E-1,3.0901158E-1,-3.1666562E-2,-3.0631565E-2,3.7904763E-1,4.377874E-2,7.20374E-3,-2.7194906E-2,1.3568369E-2,4.2831287E-2,-6.8107067E-4,3.5464022E-2,-3.1599145E-2,-8.303966E-3,-1.872241E-2,2.653732E-2,-3.0668855E-2,3.0294409E-2,-2.6851812E-2,3.1600434E-2],"categories":[],"categories_nodes":[],"categories_segments":[],"categories_sizes":[],"default_left":[0,0,0,0,0,0,0,0,0,0,0,0,0,0,0,0,0,0,0,0,0,0,0,0,0,0,0,0,0,0,0,0,0,0,0],"id":44,"left_children":[1,3,5,7,9,11,13,-1,15,17,19,21,23,25,-1,27,29,-1,31,33,-1,-1,-1,-1,